{
  "InputNeurons":784,
  "HiddenNeurons":30,
  "OutputNeurons":10,
  "HiddenBiases" : [
    -0.254108,
    1.152835,
    -1.787127,
    -7.117883,
    -0.541935,
    -1.925017,
    0.203145,
    -2.238761,
    -3.117086,
    -3.512247,
    1.343355,
    4.441895,
    -0.500158,
    -2.287502,
    -1.014022,
    1.313203,
    -0.552811,
    4.373451,
    -0.577474,
    -4.292048,
    -0.524493,
    -0.091348,
    -0.804958,
    -3.578089,
    -2.801136,
    0.456829,
    2.246811,
    0.157738,
    -1.460180,
    -0.396006
  ],
  "HiddenWeights" : [
    0.780098,
    0.392132,
    -0.432447,
    -1.026616,
    -1.187879,
    -0.365156,
    0.011067,
    0.468680,
    -1.711267,
    2.590603,
    0.248728,
    -0.087321,
    0.104038,
    1.970541,
    -0.672283,
    -0.082582,
    -1.594778,
    0.832728,
    1.052224,
    -0.293566,
    1.047684,
    0.624422,
    1.586832,
    0.504984,
    -1.072018,
    -1.639779,
    -0.575914,
    2.333269,
    0.171453,
    0.516127,
    0.964869,
    -0.033009,
    -0.072926,
    0.733119,
    0.711384,
    2.154631,
    -0.507834,
    0.265156,
    0.025283,
    -0.354059,
    0.573909,
    0.600457,
    0.719187,
    0.944897,
    1.951385,
    0.584856,
    -1.734424,
    -0.770893,
    0.641336,
    0.071829,
    -2.771369,
    0.291121,
    -0.437584,
    0.717876,
    2.474520,
    1.152523,
    3.138447,
    -0.623947,
    0.394321,
    -1.311056,
    -1.021900,
    0.454553,
    0.791631,
    1.178854,
    2.036976,
    0.359154,
    0.698199,
    0.097925,
    -0.440145,
    0.224949,
    0.855393,
    -0.092472,
    -1.475766,
    -0.499433,
    -0.188980,
    0.273902,
    0.112757,
    -1.269226,
    0.869789,
    -1.548903,
    0.070137,
    0.611188,
    -0.302960,
    0.168873,
    0.778441,
    -0.403134,
    -0.562053,
    0.037007,
    0.971610,
    -0.995525,
    1.282320,
    0.991991,
    0.061808,
    0.965746,
    0.603902,
    0.013809,
    0.282042,
    1.187151,
    -1.373219,
    -0.531359,
    0.960238,
    -1.031342,
    -0.019242,
    -0.341680,
    0.970287,
    -0.314364,
    1.394801,
    -0.523006,
    1.582442,
    -0.450196,
    -0.990461,
    1.652786,
    0.752873,
    -1.500313,
    0.691854,
    -1.318532,
    0.345208,
    -0.412884,
    -0.315078,
    -0.673295,
    1.216395,
    0.741858,
    -3.018096,
    -0.806314,
    -0.524231,
    -3.075548,
    -0.824916,
    0.231405,
    -0.708214,
    -0.171269,
    0.807602,
    0.921733,
    0.669247,
    -1.136629,
    -0.222480,
    -0.055652,
    0.513078,
    0.173442,
    -0.483664,
    0.045398,
    -0.144824,
    -0.199261,
    0.309866,
    -0.062426,
    -0.354339,
    -0.292568,
    1.579199,
    0.702533,
    0.438176,
    -0.934477,
    -0.695750,
    -0.989277,
    -1.773628,
    1.018541,
    2.398108,
    -1.555486,
    -0.644139,
    -1.821698,
    -0.155678,
    -1.962637,
    -1.714848,
    -0.993640,
    0.793508,
    -0.157529,
    -1.147256,
    -1.389818,
    0.258447,
    -0.278591,
    0.350557,
    -2.431372,
    0.060846,
    1.062895,
    0.155852,
    1.596455,
    0.163977,
    -0.514606,
    0.838634,
    -1.332830,
    -0.828734,
    -1.659920,
    -0.751803,
    -2.431060,
    0.005499,
    -2.162801,
    0.458301,
    0.312457,
    0.358689,
    -3.037416,
    -1.079914,
    -2.607697,
    -0.343410,
    -2.362658,
    0.822148,
    -0.107912,
    -0.070926,
    0.092405,
    0.759476,
    -2.748196,
    0.741642,
    1.201071,
    0.202030,
    -1.556471,
    0.015725,
    1.096344,
    0.496610,
    -0.838269,
    -1.054579,
    -0.378646,
    -1.530433,
    -0.867341,
    -0.883744,
    -2.892159,
    -2.978925,
    -1.078607,
    -1.252027,
    -1.622950,
    0.932022,
    0.453496,
    -1.374042,
    -0.442613,
    1.564411,
    0.223609,
    -1.076569,
    0.188763,
    0.469614,
    1.926466,
    -1.038345,
    -0.722747,
    0.146029,
    -2.085917,
    -0.646138,
    1.417520,
    -0.137656,
    -1.100882,
    -1.000346,
    -0.648864,
    -2.847343,
    -1.052753,
    -1.463825,
    -2.116221,
    -0.219511,
    -2.224677,
    -1.768926,
    -2.009416,
    -1.196545,
    -0.555447,
    -1.808719,
    -0.694901,
    0.943935,
    -1.500198,
    0.388532,
    -1.679814,
    1.182372,
    -0.127224,
    0.077711,
    0.693025,
    1.007589,
    1.056723,
    0.883388,
    -1.689673,
    0.172115,
    -1.613833,
    -2.263718,
    0.384198,
    -1.598792,
    -1.755214,
    -0.312849,
    -0.519891,
    1.108505,
    2.215440,
    -0.734375,
    0.533868,
    1.894667,
    0.944202,
    2.337996,
    1.992570,
    -0.629418,
    -0.194080,
    0.729484,
    -0.054991,
    1.932742,
    -1.399428,
    1.574653,
    0.300640,
    0.115232,
    1.191982,
    -0.909380,
    0.183626,
    -0.862061,
    -1.096507,
    -1.663319,
    -0.109067,
    -0.276330,
    0.795489,
    1.110361,
    0.366484,
    0.137565,
    -0.012063,
    1.754769,
    0.722329,
    0.073549,
    2.170890,
    -0.233196,
    0.171498,
    1.958382,
    0.148195,
    0.483789,
    -0.167908,
    1.250644,
    1.371026,
    1.554124,
    1.394191,
    0.846559,
    0.970289,
    1.169103,
    0.517784,
    0.454512,
    0.501757,
    1.251947,
    -0.828916,
    1.793780,
    2.048526,
    1.062748,
    2.759899,
    2.359104,
    1.281187,
    0.154194,
    1.144686,
    0.816035,
    0.672005,
    -0.542320,
    0.652104,
    3.692091,
    -0.105430,
    -1.106380,
    -1.214527,
    -1.286369,
    -0.280184,
    -0.694375,
    0.628062,
    -0.479017,
    -0.563452,
    -0.796429,
    0.153422,
    0.102045,
    0.916831,
    0.012000,
    0.417952,
    1.617721,
    1.479567,
    1.226149,
    -0.488554,
    -0.636045,
    0.866811,
    0.112848,
    0.968498,
    0.797196,
    -0.721354,
    1.599853,
    0.939346,
    -0.880270,
    1.879409,
    -0.665839,
    -0.473433,
    -0.860600,
    -0.424804,
    -0.592152,
    -0.363572,
    0.697356,
    1.582834,
    -0.429790,
    -0.880554,
    0.764197,
    -0.081536,
    2.082312,
    1.278164,
    -1.500814,
    0.214383,
    -0.853803,
    -1.122304,
    -1.252155,
    -0.942732,
    -1.711274,
    -1.611541,
    0.365122,
    1.003134,
    1.529530,
    -0.741901,
    2.314080,
    0.152475,
    1.073430,
    1.087564,
    -0.979944,
    0.438673,
    1.571043,
    0.782299,
    -0.697342,
    0.849091,
    -0.613661,
    -0.703669,
    -0.272766,
    -1.632485,
    0.364722,
    -0.141432,
    0.310703,
    -0.157296,
    -1.594814,
    0.008916,
    -1.809129,
    -1.009025,
    -0.623418,
    -0.657362,
    -1.490901,
    0.061122,
    0.738304,
    2.547538,
    0.875110,
    -0.072556,
    0.338525,
    -1.062014,
    1.078606,
    1.107990,
    0.948406,
    -1.404464,
    1.324795,
    -0.734024,
    0.015913,
    -1.728358,
    2.223082,
    0.513110,
    0.501622,
    -2.701895,
    1.768036,
    0.603444,
    -0.614738,
    -0.391866,
    -2.405699,
    -0.223857,
    -0.556808,
    -0.566188,
    -0.642335,
    0.661342,
    -0.526962,
    -0.686256,
    0.407497,
    -0.711754,
    -0.976866,
    1.423105,
    0.911957,
    0.408340,
    -0.483031,
    1.191797,
    0.014749,
    0.632738,
    -1.137557,
    0.051997,
    -0.607047,
    -0.601465,
    -1.030155,
    -2.880296,
    0.514648,
    -1.739970,
    0.570874,
    0.340356,
    -0.833861,
    -0.160066,
    0.612960,
    -1.125390,
    0.236153,
    0.680114,
    0.461120,
    -0.381316,
    -2.164142,
    -0.395054,
    1.390156,
    -0.816209,
    -0.997951,
    1.018928,
    -2.053594,
    0.648492,
    1.683553,
    0.771318,
    -0.481616,
    -1.195675,
    -0.838820,
    -1.624086,
    -0.999624,
    1.070011,
    -0.005749,
    1.231587,
    -0.097946,
    0.618580,
    0.651809,
    0.853219,
    -0.229040,
    0.552421,
    0.053233,
    1.983325,
    0.015051,
    0.024746,
    0.864596,
    0.401335,
    0.804319,
    0.753688,
    -0.913748,
    -1.930420,
    -0.227671,
    0.813168,
    -0.241861,
    0.129504,
    0.297692,
    -1.527950,
    -1.082010,
    -0.415543,
    0.656951,
    -0.641800,
    -1.366628,
    -0.172428,
    -0.484727,
    -0.911920,
    1.071912,
    1.023853,
    -2.173894,
    0.630900,
    -0.504316,
    0.922832,
    0.421768,
    0.194097,
    0.617361,
    0.650528,
    1.008331,
    -0.552193,
    -0.556794,
    -0.307037,
    1.105154,
    0.820956,
    0.803837,
    1.618551,
    0.002428,
    -0.376797,
    -1.650772,
    -0.415050,
    1.759309,
    -0.675718,
    1.447354,
    -0.938532,
    1.121196,
    -0.620702,
    -0.549389,
    -0.843397,
    -1.371298,
    0.781192,
    1.313772,
    0.184064,
    -0.584134,
    -0.910657,
    -1.010843,
    1.247918,
    -0.357167,
    -0.252611,
    0.732983,
    0.568333,
    -0.792244,
    -0.891363,
    -2.030987,
    0.717348,
    -0.817212,
    0.309240,
    -0.424556,
    0.785009,
    -1.308975,
    -0.216649,
    -1.448083,
    1.197117,
    -1.273682,
    1.841271,
    -1.360224,
    2.576724,
    -0.304428,
    -1.213819,
    -0.919362,
    0.099183,
    0.272970,
    -0.332892,
    -1.646369,
    1.347989,
    -1.257351,
    -1.185761,
    -0.169667,
    -1.945393,
    0.810490,
    1.126732,
    0.697571,
    0.505436,
    -1.293911,
    -1.219576,
    -0.347053,
    1.538272,
    -1.377519,
    0.281236,
    0.910557,
    0.294802,
    -0.243227,
    -0.648923,
    -1.630636,
    0.160085,
    1.958800,
    -1.536527,
    -0.644533,
    -1.567975,
    -1.015840,
    -0.115254,
    -1.996272,
    0.431134,
    0.737195,
    -1.281108,
    1.129692,
    0.565177,
    -0.498760,
    1.430874,
    -0.035821,
    0.638661,
    -0.888232,
    -0.628040,
    -1.834839,
    -0.011462,
    1.540136,
    0.525852,
    -0.384573,
    1.719479,
    0.288210,
    0.583784,
    2.073835,
    0.180714,
    1.327548,
    -0.687770,
    -0.876599,
    -0.257121,
    -0.913836,
    -1.733981,
    0.552279,
    1.324316,
    -1.192391,
    -1.261744,
    1.268972,
    0.246375,
    1.018484,
    -1.566577,
    0.442435,
    -0.334269,
    -1.137754,
    -0.397638,
    -0.329616,
    -0.851811,
    -2.282580,
    -0.530924,
    -1.738441,
    -1.300504,
    -0.253968,
    -0.851638,
    -1.509075,
    0.321126,
    1.026126,
    -1.345727,
    -1.676508,
    0.112928,
    -0.734365,
    1.185185,
    -1.126119,
    -0.453863,
    -0.314871,
    2.236552,
    -0.537253,
    1.770580,
    1.745477,
    -1.191273,
    1.525874,
    0.166679,
    -1.551661,
    -1.678477,
    -0.068680,
    0.805365,
    0.440713,
    -0.776822,
    0.635168,
    0.377239,
    0.589874,
    -0.785229,
    -0.535298,
    0.491598,
    0.801030,
    -1.285684,
    -1.652055,
    0.566692,
    1.327967,
    0.561823,
    -0.109305,
    0.128462,
    -1.130778,
    -0.833447,
    -0.511041,
    -0.674832,
    1.448723,
    1.910670,
    1.003751,
    0.169157,
    2.232380,
    -0.532394,
    1.363038,
    0.225707,
    0.010353,
    0.685372,
    1.801728,
    0.418762,
    0.954606,
    -0.084632,
    0.669351,
    0.771408,
    -0.508977,
    -0.384664,
    -0.267629,
    -1.655186,
    0.580121,
    -0.410986,
    -0.263511,
    1.581872,
    0.524538,
    -0.471940,
    -1.214097,
    0.029374,
    -1.469365,
    -1.407120,
    -1.174853,
    0.427302,
    0.185046,
    1.247158,
    1.546201,
    -1.080383,
    0.654038,
    -1.067617,
    -0.796733,
    -1.716759,
    1.488360,
    -0.687193,
    -1.054378,
    0.559823,
    -0.949700,
    0.328419,
    -0.392514,
    -0.747927,
    -0.554571,
    0.405837,
    -0.565664,
    -1.076544,
    -0.064904,
    0.273997,
    0.550351,
    2.124685,
    -2.818806,
    -0.642247,
    -0.246125,
    0.512639,
    -1.984281,
    -0.257001,
    -0.680797,
    0.868639,
    -1.244396,
    0.358641,
    -0.005319,
    0.089644,
    -1.678083,
    -0.488565,
    0.353328,
    -0.074391,
    0.818910,
    -0.730071,
    0.365940,
    0.195411,
    -2.200245,
    0.160944,
    -0.938803,
    0.212371,
    -2.226873,
    -1.067284,
    -1.452106,
    0.548456,
    -1.783298,
    0.603888,
    0.046633,
    -1.595610,
    -0.978943,
    1.102745,
    0.673775,
    1.018958,
    -0.742467,
    0.731580,
    1.831009,
    -1.453295,
    -1.270965,
    -1.217158,
    -0.059460,
    -1.397513,
    1.629299,
    0.855540,
    1.801472,
    -0.371258,
    0.142347,
    -1.341061,
    -2.258745,
    3.191620,
    0.544054,
    -0.386009,
    -2.382195,
    1.479340,
    -0.511031,
    0.322028,
    0.845237,
    0.060202,
    0.244411,
    -0.806819,
    0.382765,
    1.647086,
    0.164235,
    0.964274,
    0.091664,
    -1.583796,
    -0.201364,
    0.229757,
    0.875709,
    0.193891,
    -1.329171,
    -1.803659,
    -0.647784,
    -1.169730,
    0.363830,
    1.577705,
    -0.486213,
    0.089784,
    -0.134482,
    2.127892,
    0.597858,
    -1.821482,
    0.948347,
    -0.058643,
    0.063768,
    0.580639,
    0.281122,
    -0.463527,
    0.556061,
    -1.509863,
    0.704711,
    -0.100314,
    -0.092967,
    0.106600,
    -0.988823,
    -2.098851,
    0.895480,
    1.477577,
    -0.255683,
    0.742065,
    0.551910,
    -0.845731,
    -2.524748,
    -0.712591,
    -1.331353,
    -1.176290,
    0.644470,
    0.359048,
    -0.947081,
    -1.750937,
    -1.147200,
    -0.783471,
    0.490388,
    1.193053,
    -0.753089,
    1.443638,
    -2.505216,
    -0.695737,
    0.954617,
    -0.200152,
    -2.189257,
    0.722972,
    1.239841,
    -0.060125,
    0.301448,
    0.758553,
    -0.919622,
    0.270676,
    2.088660,
    0.323745,
    -1.770138,
    1.799900,
    -0.176139,
    0.593379,
    0.912038,
    1.863589,
    0.504084,
    1.301600,
    0.311073,
    -0.129552,
    0.844753,
    -0.566703,
    0.693146,
    -0.083068,
    1.232997,
    -1.087057,
    -0.834902,
    -1.014833,
    0.698153,
    0.586829,
    0.342313,
    0.915369,
    -0.564031,
    0.252402,
    0.692330,
    -2.352641,
    1.734040,
    -0.187615,
    0.018540,
    0.203564,
    1.180554,
    0.044792,
    1.877297,
    1.413356,
    0.544758,
    -0.360451,
    -0.049790,
    -0.193638,
    -0.340190,
    2.071519,
    0.673189,
    1.186081,
    -1.404945,
    -0.752737,
    0.129750,
    1.590644,
    0.098900,
    -0.349781,
    1.474581,
    1.438271,
    -0.266696,
    0.547371,
    0.364859,
    -0.727669,
    0.456719,
    0.015644,
    -1.672389,
    -0.470208,
    -1.168005,
    -0.784899,
    0.456685,
    -0.263204,
    1.259087,
    -0.532377,
    0.428697,
    0.073229,
    -0.747288,
    -1.107180,
    0.236666,
    -1.943355,
    0.911563,
    -2.596316,
    -0.382290,
    -1.204488,
    -0.729165,
    1.610467,
    2.349268,
    1.269331,
    1.112331,
    2.094816,
    0.654162,
    0.318962,
    -0.305745,
    -0.859199,
    -0.997865,
    1.093345,
    1.364431,
    0.170408,
    1.071666,
    -0.641700,
    -0.211991,
    -1.211353,
    -0.098776,
    -0.863617,
    -0.079106,
    0.031631,
    -1.396280,
    0.500112,
    -1.087072,
    0.417956,
    0.543440,
    0.075278,
    0.495666,
    0.358096,
    1.153691,
    2.263402,
    0.596674,
    -0.635556,
    0.165139,
    1.185001,
    -1.551531,
    -0.554494,
    -0.364409,
    2.100290,
    1.498209,
    1.968094,
    -0.298208,
    0.058963,
    0.367992,
    -1.406275,
    0.037178,
    0.409857,
    -0.887337,
    0.469789,
    -0.837941,
    -0.809688,
    -0.725240,
    0.236116,
    -0.394029,
    -0.824384,
    -1.190041,
    -0.316928,
    1.486145,
    0.352971,
    0.713518,
    0.944087,
    -0.871657,
    0.453140,
    -0.724307,
    1.163798,
    1.248002,
    0.733752,
    1.820662,
    -0.327081,
    0.751891,
    2.735304,
    -1.920707,
    0.260066,
    -1.737219,
    -1.544923,
    -0.431381,
    -2.962402,
    -0.184070,
    -0.037358,
    -1.093723,
    0.905746,
    0.363544,
    -0.340197,
    1.558474,
    -0.165801,
    0.479836,
    -0.317441,
    -0.078352,
    0.893978,
    -1.192492,
    0.814843,
    0.125937,
    0.164620,
    0.775643,
    0.510166,
    0.358650,
    -0.942210,
    0.267875,
    0.479813,
    -0.306919,
    -0.241659,
    0.193761,
    -0.955911,
    -2.247516,
    -1.582202,
    -0.313074,
    -2.238166,
    -1.431378,
    -0.514950,
    0.560580,
    0.763944,
    0.401891,
    0.287918,
    -0.801449,
    -0.582211,
    -0.210416,
    -0.720742,
    1.138183,
    0.917786,
    1.048321,
    -0.209037,
    -0.804399,
    0.055432,
    1.005064,
    -0.220216,
    0.813443,
    -0.177734,
    0.565214,
    0.922910,
    -1.124957,
    -1.336807,
    -0.310846,
    -0.696867,
    -0.846219,
    -0.026393,
    1.650606,
    0.030259,
    0.434306,
    1.673109,
    1.375937,
    1.233135,
    1.354735,
    1.146977,
    1.181528,
    -0.325712,
    0.469923,
    1.086484,
    0.508795,
    -0.313927,
    1.290189,
    -1.042271,
    -1.514509,
    3.007085,
    -0.131560,
    0.948372,
    0.060530,
    -0.086274,
    -1.397998,
    0.693440,
    -0.360884,
    -0.936146,
    2.477054,
    -1.641851,
    -0.532802,
    -0.939077,
    0.319790,
    1.546238,
    0.609435,
    2.382082,
    -0.304224,
    0.758064,
    -0.321059,
    0.090121,
    0.028931,
    -0.174486,
    0.892476,
    -0.581891,
    -1.124526,
    1.350975,
    -1.216633,
    1.397930,
    1.281531,
    -1.587289,
    -1.175556,
    0.316907,
    0.040351,
    0.144128,
    0.135053,
    0.387247,
    0.262452,
    0.761651,
    0.022554,
    1.141081,
    1.843153,
    1.524208,
    1.549791,
    -0.699364,
    -0.375634,
    0.050916,
    0.413193,
    0.166052,
    -0.310682,
    -0.047647,
    -0.812061,
    0.602450,
    -1.267854,
    -0.765667,
    -0.394547,
    -0.217314,
    -0.041557,
    1.523940,
    -0.272125,
    1.764345,
    -0.347412,
    0.148475,
    0.555098,
    0.686866,
    2.260159,
    -0.399627,
    2.555927,
    1.439543,
    1.076596,
    1.923539,
    1.653193,
    -0.354628,
    0.547833,
    -0.422100,
    0.575116,
    -0.013845,
    0.699984,
    -2.218147,
    0.231164,
    -1.020988,
    -3.334112,
    -2.110327,
    -0.438633,
    -0.331188,
    0.711682,
    0.139612,
    1.272371,
    0.546725,
    -0.096208,
    0.587243,
    0.233606,
    -0.334260,
    2.038859,
    1.303151,
    2.676708,
    2.008386,
    3.001316,
    0.977145,
    -0.831375,
    -1.376316,
    -1.851279,
    0.362953,
    0.415731,
    -0.106868,
    -0.791653,
    0.804542,
    -0.888135,
    -1.682277,
    0.046031,
    -0.093798,
    -0.073431,
    0.084442,
    0.308051,
    0.263212,
    0.217866,
    -0.083283,
    0.257937,
    -1.819977,
    3.511251,
    0.940110,
    1.424667,
    2.711468,
    3.282704,
    2.109816,
    2.676768,
    -0.150161,
    -0.686643,
    -3.133798,
    -0.635303,
    -1.923649,
    -0.662056,
    0.273766,
    -0.723047,
    0.551521,
    0.133597,
    2.255530,
    0.180545,
    -0.189775,
    -0.008778,
    -1.065001,
    -0.222297,
    0.516100,
    2.510398,
    1.581956,
    -1.266692,
    -0.972227,
    2.292651,
    0.564319,
    1.607856,
    0.912694,
    1.425611,
    1.282199,
    0.082129,
    -2.569297,
    -1.250370,
    -1.181974,
    -1.484732,
    -0.589753,
    -0.581180,
    0.158775,
    0.005158,
    -1.439953,
    1.194061,
    0.850104,
    1.066121,
    -1.240049,
    0.737110,
    -1.015721,
    -2.148701,
    -0.303066,
    -0.044360,
    -1.323135,
    1.113869,
    0.828677,
    0.847346,
    0.126384,
    1.552960,
    1.404943,
    3.541636,
    1.485964,
    -0.044641,
    -1.001451,
    -3.258256,
    -1.083901,
    -0.796066,
    -1.078481,
    -0.003072,
    -1.025238,
    0.452532,
    1.028261,
    0.962863,
    2.829608,
    1.526944,
    1.402954,
    -0.444132,
    -0.297583,
    0.289107,
    -1.043714,
    2.109465,
    -0.179201,
    -1.199244,
    -0.279810,
    0.859559,
    2.702689,
    3.288266,
    3.571439,
    3.213282,
    -0.085187,
    -1.720015,
    -3.788773,
    -2.276464,
    -1.423215,
    -2.698358,
    -1.059913,
    1.092580,
    0.114400,
    2.009326,
    -0.607397,
    1.591647,
    1.759163,
    0.747467,
    1.494982,
    -1.698345,
    -1.139858,
    0.731270,
    0.287170,
    0.719709,
    -0.433674,
    0.289040,
    -0.451092,
    -0.656858,
    1.406126,
    4.506322,
    3.420542,
    2.371175,
    -0.569900,
    -1.214047,
    -1.400561,
    -2.841262,
    -0.750806,
    -1.214312,
    -2.026535,
    0.236955,
    -1.361292,
    -0.540744,
    -0.752198,
    0.678249,
    0.998050,
    1.299282,
    0.265392,
    -0.940610,
    -0.223722,
    1.709711,
    1.406484,
    1.557789,
    0.178280,
    -0.995370,
    0.260073,
    1.671162,
    3.188208,
    0.245830,
    3.412863,
    1.535620,
    0.431712,
    -0.269653,
    -1.094120,
    -2.637672,
    0.710874,
    -1.339348,
    -0.263292,
    -1.274018,
    -0.253607,
    -1.946169,
    -0.940677,
    0.204987,
    0.728502,
    0.712929,
    1.056799,
    1.161364,
    0.240677,
    1.144048,
    -0.921301,
    -0.582773,
    0.215702,
    -1.228674,
    1.416816,
    -0.262468,
    1.547128,
    1.980086,
    1.690670,
    0.873258,
    -0.320015,
    0.810858,
    1.060663,
    -0.602466,
    0.160150,
    0.511025,
    -2.620947,
    0.518641,
    1.118585,
    0.807791,
    1.291141,
    0.028031,
    -0.184054,
    2.526572,
    1.757936,
    0.612455,
    -0.658947,
    -0.825633,
    0.161606,
    0.999814,
    1.278302,
    0.299417,
    0.745457,
    0.070637,
    1.567156,
    0.461405,
    -0.224360,
    1.176060,
    1.195102,
    0.458732,
    0.158984,
    0.361656,
    -0.267655,
    -1.957572,
    0.991764,
    -0.511338,
    -1.067577,
    0.555293,
    0.120063,
    -1.106226,
    -0.162375,
    0.674489,
    -1.987259,
    2.078570,
    0.842248,
    -0.205182,
    1.317913,
    0.357244,
    0.558962,
    0.669662,
    1.566749,
    -0.632285,
    0.027871,
    -0.078408,
    1.744997,
    1.271078,
    0.868571,
    -0.652285,
    -0.379107,
    -1.631145,
    -1.727925,
    -0.805549,
    -0.653948,
    -0.885256,
    0.946779,
    -1.126821,
    -0.064066,
    -0.547882,
    -0.101958,
    0.299750,
    -0.203010,
    1.520779,
    -0.789522,
    0.225350,
    1.533236,
    0.028532,
    1.184355,
    -1.192544,
    0.407726,
    0.654504,
    0.963932,
    0.738556,
    0.418570,
    0.761728,
    0.010921,
    1.563102,
    1.297265,
    0.773309,
    2.618634,
    0.566862,
    -0.602801,
    1.104198,
    1.188427,
    0.127440,
    1.011365,
    1.178296,
    0.150976,
    1.069874,
    0.801262,
    2.399753,
    0.777209,
    2.133803,
    0.442373,
    -0.930775,
    -0.752341,
    0.094344,
    -2.451455,
    -0.174552,
    -0.880508,
    0.520795,
    1.386909,
    -0.407003,
    -0.390916,
    1.640512,
    1.420893,
    1.482459,
    0.752228,
    -0.444976,
    -0.528159,
    -0.239965,
    1.060591,
    0.663737,
    1.426951,
    0.435474,
    0.662308,
    -1.071095,
    -1.652300,
    0.188635,
    -1.011984,
    1.632327,
    0.359002,
    -1.246876,
    1.250399,
    0.244328,
    1.377652,
    -0.956409,
    -0.862958,
    -0.240225,
    -1.049477,
    0.683364,
    1.452898,
    -0.156775,
    1.052686,
    -0.109505,
    -0.182668,
    -1.251633,
    0.229423,
    0.333496,
    -0.504149,
    -0.118630,
    -0.277301,
    -0.161985,
    -1.004154,
    0.735761,
    -0.756156,
    0.145205,
    0.145739,
    1.003574,
    -0.619773,
    0.262681,
    -1.447046,
    0.012252,
    0.727344,
    1.451519,
    0.199566,
    1.108582,
    -1.144400,
    0.984634,
    0.189797,
    -1.009589,
    0.493547,
    0.831222,
    -1.806704,
    1.320043,
    -0.675883,
    0.107674,
    0.201506,
    -0.741309,
    -1.766904,
    1.109708,
    0.284244,
    0.716651,
    0.213044,
    -2.549874,
    0.292220,
    -1.051623,
    0.306533,
    0.047022,
    1.343989,
    1.025349,
    -0.293126,
    1.329638,
    1.419810,
    -0.932135,
    -0.620697,
    -0.818624,
    -0.694407,
    1.051423,
    -1.675622,
    0.604638,
    -1.246965,
    -0.361457,
    -0.879563,
    -0.546037,
    0.671424,
    -0.236317,
    -0.770559,
    2.050831,
    -0.116587,
    1.782363,
    -0.903030,
    -1.123622,
    -0.049222,
    0.611403,
    -0.411105,
    0.927231,
    0.363424,
    1.685241,
    0.307139,
    -1.375644,
    -0.527775,
    2.367220,
    0.295429,
    1.711312,
    1.567822,
    2.122024,
    1.224093,
    1.412076,
    0.735510,
    1.108988,
    -1.570896,
    0.342206,
    2.145932,
    -0.054142,
    0.857283,
    0.224338,
    -0.429997,
    1.472465,
    -0.937685,
    -0.098220,
    0.755202,
    -0.101517,
    0.292330,
    0.711337,
    -1.730998,
    -0.218507,
    0.775167,
    -0.732364,
    0.948002,
    0.809592,
    -0.563191,
    1.351387,
    1.162960,
    1.237771,
    0.522151,
    2.567076,
    2.206665,
    1.086950,
    -0.979041,
    1.112472,
    0.133204,
    -1.699948,
    -0.617467,
    -0.778040,
    0.081839,
    -0.687666,
    0.621314,
    0.021460,
    1.071696,
    1.583169,
    0.049141,
    0.474941,
    0.027493,
    -0.085451,
    0.524260,
    -0.146434,
    -0.801346,
    0.539027,
    -1.073094,
    -0.348592,
    -1.003382,
    -0.000554,
    2.021798,
    0.341670,
    0.628238,
    1.423141,
    0.775009,
    0.310165,
    -0.198910,
    -1.261837,
    -1.877635,
    0.401093,
    -0.901734,
    -1.875426,
    1.132945,
    -0.264833,
    -1.516220,
    1.089652,
    -1.461139,
    0.192958,
    -1.514317,
    -1.340560,
    -1.168416,
    -0.369789,
    -0.181458,
    0.148861,
    -1.426672,
    -1.201783,
    -0.193959,
    1.129836,
    0.109020,
    0.790496,
    -1.259993,
    2.192370,
    1.498622,
    1.754132,
    0.257948,
    1.089648,
    1.421630,
    1.953054,
    -1.440484,
    0.941370,
    -0.316501,
    -0.092013,
    0.562485,
    -0.318904,
    -1.893905,
    0.042107,
    -0.077604,
    -1.016502,
    1.935937,
    -1.073678,
    -0.668494,
    0.879648,
    -1.369261,
    -0.863047,
    -0.896186,
    -0.007944,
    -1.021442,
    1.280148,
    -0.708063,
    0.549034,
    0.753259,
    0.355996,
    -0.290404,
    -0.907295,
    -0.438224,
    -1.020680,
    -0.350709,
    -0.008663,
    -0.970786,
    -2.280464,
    -1.533369,
    -0.511137,
    0.390068,
    -1.583682,
    1.916553,
    -0.046811,
    0.696401,
    -0.478895,
    0.735136,
    -1.094041,
    0.422626,
    -0.543036,
    -0.763575,
    0.613091,
    -0.438159,
    0.503505,
    -0.535923,
    -0.098024,
    0.660641,
    -0.958131,
    -0.040688,
    -1.217024,
    -0.831515,
    0.832799,
    -1.425315,
    -0.201634,
    0.183339,
    -0.721750,
    -1.009057,
    0.366368,
    -0.230496,
    1.253850,
    -2.179007,
    -0.214343,
    -1.199544,
    -0.716153,
    0.793143,
    1.002927,
    -0.748694,
    -2.468602,
    -0.528501,
    0.642845,
    -1.414798,
    1.057483,
    0.667003,
    -0.081552,
    0.732789,
    -1.175557,
    -1.879084,
    -0.238881,
    1.115915,
    0.076405,
    -1.785563,
    -1.000547,
    -0.869316,
    -1.321115,
    -0.215883,
    -0.753246,
    -0.531050,
    -0.164496,
    -0.345193,
    1.007217,
    0.802195,
    -0.145316,
    1.071807,
    -0.344322,
    -0.589369,
    -0.428165,
    -1.374419,
    1.875260,
    -1.168069,
    -0.794304,
    0.250732,
    0.621773,
    0.357741,
    -0.321052,
    -0.971243,
    0.022181,
    0.182384,
    -0.529043,
    -1.950411,
    -0.477158,
    -2.856912,
    -1.357822,
    -0.681586,
    -0.414910,
    0.167235,
    -0.419032,
    -0.594974,
    1.074642,
    1.179847,
    0.312342,
    -0.683299,
    -1.392991,
    0.999028,
    -0.900325,
    -1.232590,
    -0.606167,
    -0.986532,
    2.918328,
    0.381969,
    1.670721,
    1.876268,
    0.142963,
    -0.754189,
    -1.294977,
    -0.780287,
    -1.118368,
    -1.751911,
    -1.899740,
    -1.630165,
    -1.201656,
    -0.147064,
    0.541353,
    0.200782,
    -0.107725,
    2.140632,
    0.303522,
    0.360924,
    2.065677,
    -1.268311,
    -1.248076,
    -2.398822,
    -2.035342,
    -0.994227,
    0.204572,
    -0.790147,
    2.451330,
    0.776743,
    0.320195,
    0.385142,
    -0.741481,
    -1.220270,
    0.964877,
    1.078986,
    -1.816417,
    -0.939440,
    1.291477,
    -2.104843,
    -0.367769,
    -1.117525,
    -0.439235,
    -0.033016,
    -0.998697,
    -0.922502,
    0.095176,
    -1.670948,
    0.021178,
    -1.658551,
    -0.734274,
    -0.964316,
    0.541561,
    -2.471362,
    -1.602634,
    -1.704964,
    -0.446999,
    0.440244,
    0.047452,
    0.230735,
    0.414914,
    -0.808267,
    1.337743,
    0.847027,
    0.440815,
    1.237067,
    -0.568612,
    0.416186,
    1.719847,
    1.337949,
    1.432046,
    0.166654,
    0.580388,
    0.340372,
    -1.694394,
    1.059462,
    -2.567489,
    1.183930,
    -0.613919,
    -0.392810,
    0.069912,
    -1.753291,
    -0.184498,
    -1.666434,
    -0.228787,
    -0.631203,
    0.655344,
    -0.443359,
    -1.837734,
    -2.356444,
    -0.906851,
    -0.147594,
    -0.597498,
    0.211393,
    1.590855,
    1.095923,
    0.462022,
    0.195560,
    0.900067,
    0.806412,
    -0.937064,
    -1.677629,
    1.872305,
    -0.949484,
    -2.015509,
    -0.943405,
    -1.358677,
    -0.562791,
    0.151718,
    -0.366439,
    -0.298841,
    -1.901585,
    -2.023729,
    -0.879386,
    0.011172,
    -0.691086,
    -1.357128,
    -2.751630,
    -1.152689,
    0.136106,
    -0.409123,
    1.201615,
    -0.250948,
    1.245570,
    2.787734,
    0.400118,
    0.570478,
    1.346234,
    1.257291,
    0.865506,
    -0.193935,
    -1.744811,
    1.737815,
    0.410926,
    2.207642,
    2.260136,
    -0.453527,
    0.181916,
    0.750177,
    -0.257782,
    -0.514504,
    -0.840176,
    -0.690519,
    0.790116,
    -0.203621,
    -0.345641,
    -0.541149,
    -0.791985,
    1.104361,
    0.147372,
    -0.941566,
    1.378407,
    1.332887,
    0.094784,
    0.782434,
    -0.179227,
    -1.212803,
    0.265736,
    0.424474,
    0.942368,
    -0.217785,
    2.323407,
    -0.361819,
    -0.159111,
    0.596081,
    1.894157,
    0.569884,
    -0.471945,
    -1.828501,
    -0.966483,
    -0.619703,
    -0.863972,
    -0.553964,
    -0.468123,
    -2.711308,
    -0.050874,
    1.382173,
    -1.167996,
    0.407024,
    0.925469,
    1.395417,
    -1.051471,
    0.597883,
    -0.364198,
    -1.182889,
    -0.144185,
    1.914830,
    0.366599,
    0.413984,
    1.501630,
    1.663963,
    0.307151,
    0.472281,
    0.844133,
    1.293526,
    1.185030,
    -1.422360,
    -2.337656,
    1.381997,
    -1.055515,
    -1.074293,
    -0.610206,
    0.085834,
    -0.138158,
    -0.377929,
    1.465065,
    -0.946135,
    0.043553,
    0.198235,
    1.726766,
    1.602610,
    -0.340645,
    -0.506691,
    -0.061727,
    0.167135,
    -1.965367,
    1.416384,
    1.379974,
    1.021379,
    0.565985,
    -0.435618,
    1.296082,
    0.930966,
    1.179740,
    0.316365,
    -1.140801,
    -1.419879,
    1.277035,
    1.310805,
    0.494422,
    1.096592,
    0.839263,
    -1.065048,
    0.423767,
    0.682387,
    1.085055,
    1.204045,
    -0.891718,
    -0.861479,
    -1.304974,
    1.578697,
    0.119959,
    -0.463140,
    1.372601,
    -0.216465,
    0.320220,
    1.861887,
    2.259567,
    1.474741,
    2.113367,
    1.217206,
    1.406942,
    1.471807,
    0.645407,
    1.914590,
    0.434195,
    2.302429,
    -0.280307,
    0.564234,
    -0.349766,
    0.320482,
    1.410642,
    -0.660581,
    0.886485,
    0.833170,
    -1.544514,
    -0.868481,
    0.644505,
    0.548084,
    -0.105255,
    -0.497888,
    0.690735,
    0.973886,
    1.367384,
    0.537263,
    0.428687,
    -0.898664,
    0.972756,
    0.776719,
    1.533605,
    0.986800,
    -0.414666,
    1.309684,
    -2.133110,
    1.648275,
    2.939613,
    1.882266,
    0.403094,
    1.021062,
    0.030357,
    -0.483095,
    0.684230,
    0.226041,
    0.825271,
    -0.329327,
    0.008995,
    -1.187705,
    -0.942727,
    -0.791042,
    -0.641283,
    -0.969735,
    0.567564,
    2.580094,
    1.757412,
    0.757480,
    1.688191,
    3.270252,
    2.258848,
    1.453613,
    0.683805,
    -0.272951,
    1.252558,
    0.928887,
    1.600790,
    0.533929,
    -0.051308,
    -0.957539,
    0.059869,
    0.703184,
    -2.034935,
    -2.102541,
    -1.831181,
    -0.010086,
    -0.480567,
    0.192601,
    0.699738,
    0.394982,
    -0.808045,
    0.886586,
    0.243870,
    0.238905,
    -0.627157,
    -0.122806,
    1.828772,
    -0.115716,
    -0.215598,
    0.229144,
    1.234966,
    -0.075248,
    -0.308291,
    0.421933,
    -1.527305,
    -0.502391,
    -0.266710,
    0.994144,
    -1.288545,
    1.249643,
    0.634157,
    -0.047573,
    1.212214,
    0.629208,
    -0.665217,
    -0.086941,
    -0.763046,
    -0.143311,
    1.459150,
    0.478341,
    0.038188,
    -1.094115,
    0.028863,
    0.772602,
    1.265162,
    -0.124847,
    1.333273,
    -0.346713,
    0.244339,
    -0.617357,
    -0.581769,
    -0.487398,
    0.623015,
    0.608538,
    -0.193339,
    1.026593,
    0.209544,
    1.737938,
    -0.516559,
    0.849309,
    0.151790,
    0.006688,
    -1.682191,
    -0.246858,
    0.553737,
    -0.015579,
    -0.098700,
    -0.187642,
    0.767003,
    -0.985412,
    -0.256067,
    0.462691,
    -1.066782,
    -1.056610,
    -1.328079,
    -0.130135,
    -0.519232,
    0.267331,
    -0.361254,
    0.266156,
    0.455321,
    -0.957810,
    -2.092953,
    -1.675774,
    -1.639926,
    -0.364197,
    0.012429,
    0.698817,
    -1.727124,
    0.289930,
    2.566743,
    -0.589040,
    -1.152663,
    1.548791,
    0.653386,
    -1.819923,
    0.594278,
    -1.772897,
    -1.029056,
    -2.002282,
    -2.318714,
    -0.349976,
    -1.266188,
    -1.237968,
    -0.170790,
    0.534744,
    -2.373171,
    -2.601897,
    -2.376132,
    -0.931831,
    -0.155000,
    -1.256568,
    -1.321587,
    -0.211000,
    -1.024399,
    1.348933,
    -0.250276,
    0.530494,
    -0.078914,
    0.175240,
    -1.101897,
    -0.927720,
    0.386504,
    0.614172,
    -0.403772,
    0.422688,
    -0.952540,
    1.711591,
    -1.535574,
    0.609313,
    0.632778,
    -1.966037,
    -0.041319,
    -1.127293,
    -1.259866,
    -0.526669,
    -1.504211,
    1.200255,
    0.059823,
    1.709241,
    0.641576,
    -1.188396,
    0.708404,
    0.257898,
    -0.503102,
    0.632454,
    -1.366143,
    0.521516,
    -0.633382,
    1.362325,
    1.046691,
    0.112060,
    -1.427633,
    0.854038,
    -1.487071,
    0.702781,
    -0.613694,
    0.888756,
    1.094423,
    1.539219,
    0.398764,
    -0.719954,
    -0.261705,
    1.443993,
    0.254410,
    -1.238127,
    1.362432,
    -1.105557,
    1.953716,
    0.124609,
    0.468674,
    1.437639,
    -0.267796,
    0.618691,
    -1.212299,
    0.021201,
    -0.043967,
    0.160437,
    -0.327016,
    -0.806559,
    0.128850,
    -0.583383,
    1.657062,
    -0.187821,
    -0.267544,
    -1.567156,
    1.707487,
    -0.780094,
    -0.350722,
    0.725137,
    -0.693503,
    2.297572,
    -0.971685,
    -0.129871,
    0.480242,
    0.662896,
    1.619058,
    -1.172886,
    -0.676591,
    -0.951127,
    0.090509,
    -0.320437,
    -0.129249,
    -0.719817,
    0.260586,
    0.935346,
    -1.039093,
    -1.665493,
    0.351792,
    -0.207279,
    -0.269913,
    -0.754626,
    -1.376159,
    0.279919,
    2.574553,
    -0.821411,
    0.217553,
    -0.528338,
    -1.823141,
    0.327164,
    -0.215168,
    0.019582,
    0.032930,
    0.378754,
    -0.063510,
    1.615874,
    0.766425,
    0.518782,
    -0.027613,
    -0.648966,
    -1.767193,
    0.769986,
    1.188069,
    -0.158331,
    1.488927,
    2.211041,
    -0.237208,
    -1.670260,
    1.347636,
    1.697825,
    0.792592,
    1.217702,
    0.323139,
    0.130765,
    1.772777,
    1.634351,
    0.210207,
    1.215480,
    -0.130690,
    -0.003193,
    -0.124388,
    1.746586,
    0.937169,
    -0.399930,
    -0.806108,
    1.125476,
    1.159903,
    -1.773967,
    0.077165,
    0.098775,
    -0.361117,
    -0.123524,
    -1.308500,
    -0.048202,
    -0.336271,
    -0.198784,
    -0.367264,
    0.525728,
    -0.287759,
    1.514119,
    1.215015,
    3.868408,
    1.376576,
    -0.871567,
    0.698253,
    0.359285,
    1.018687,
    -0.098868,
    1.293643,
    -1.235589,
    -0.759675,
    0.624982,
    0.257169,
    -0.554788,
    -1.505837,
    -0.764764,
    -1.017104,
    1.333135,
    0.521832,
    -0.400594,
    -1.057493,
    -1.237234,
    -0.088393,
    0.066870,
    0.561311,
    1.657238,
    0.502550,
    1.334715,
    0.220091,
    -1.701027,
    1.381514,
    0.873455,
    0.217100,
    -0.348184,
    0.279930,
    1.025702,
    0.353943,
    -0.305926,
    0.392424,
    -0.424657,
    -0.447611,
    -0.802749,
    0.730767,
    -0.264914,
    0.829324,
    -0.930967,
    0.373617,
    -0.047461,
    -1.263523,
    0.864713,
    1.565196,
    -1.473867,
    -0.715122,
    -1.923021,
    0.695861,
    -1.341246,
    -1.501119,
    -0.276598,
    -0.360298,
    -0.418759,
    0.079145,
    1.914165,
    -0.848788,
    -0.229823,
    0.466350,
    0.747541,
    -1.794276,
    -0.738425,
    1.568478,
    -1.012630,
    -0.603788,
    1.054803,
    -2.092171,
    1.952860,
    0.482767,
    -0.053167,
    0.573808,
    -0.266639,
    1.026578,
    -1.080812,
    0.387048,
    -0.156263,
    1.550078,
    -1.209199,
    -0.324588,
    -0.531019,
    0.164879,
    -0.066723,
    0.376133,
    -0.192020,
    -1.306911,
    0.068395,
    -0.996668,
    -1.075405,
    0.018077,
    -1.219537,
    -3.023276,
    -0.360445,
    -1.424948,
    1.429954,
    0.534823,
    0.889354,
    -0.278098,
    0.251214,
    2.494560,
    -0.115768,
    0.768520,
    -0.558085,
    -0.375482,
    -1.064245,
    -1.906174,
    -1.718196,
    -2.289712,
    -0.947032,
    -1.209950,
    0.420648,
    -0.938606,
    -0.464402,
    -0.625840,
    1.228173,
    0.936003,
    -0.259956,
    -1.400310,
    -0.768195,
    -3.298885,
    -0.117631,
    -1.934792,
    0.425427,
    -0.420580,
    0.129799,
    0.823019,
    -1.769894,
    -0.589006,
    -0.016669,
    -0.335173,
    -1.031322,
    -1.673111,
    -3.567541,
    -1.353758,
    -0.407666,
    -1.913125,
    -1.393466,
    -2.117372,
    -0.501179,
    0.019146,
    -0.688778,
    -0.132286,
    -1.489043,
    -0.226910,
    -0.524420,
    0.531922,
    -1.884932,
    0.547378,
    -1.079165,
    -0.955807,
    0.125975,
    -1.755218,
    -1.368884,
    -0.334783,
    -0.438011,
    -0.823920,
    2.872984,
    -0.032295,
    -1.805662,
    -1.605573,
    -1.265755,
    -1.856831,
    -1.368801,
    -2.042431,
    -2.031765,
    -2.802503,
    -1.741496,
    1.465777,
    2.196658,
    -1.153641,
    -1.211661,
    -1.183864,
    -1.116500,
    -0.377318,
    -0.720787,
    -1.047700,
    -0.111242,
    -0.600800,
    -1.507910,
    -1.535178,
    -0.904633,
    -2.354554,
    -0.655499,
    -1.969843,
    -2.705965,
    0.796359,
    -0.951354,
    -1.313984,
    0.406502,
    -1.753928,
    -0.638714,
    -2.935247,
    -1.743490,
    -0.316254,
    -0.768871,
    1.434452,
    1.948648,
    -0.181693,
    -0.199024,
    -3.322526,
    0.018754,
    -1.293748,
    -0.191694,
    -1.406639,
    -0.703963,
    -0.037346,
    -0.659547,
    -1.370887,
    -0.516372,
    -0.531129,
    0.749867,
    0.267822,
    0.718786,
    -0.334202,
    -1.499160,
    1.087993,
    -1.096645,
    -0.646847,
    -0.763794,
    0.678124,
    -0.388560,
    0.612633,
    1.855405,
    3.606812,
    0.651228,
    0.542174,
    -0.570550,
    -0.383321,
    -0.340648,
    0.497819,
    -1.224586,
    1.766912,
    -1.045103,
    -2.118721,
    -0.379833,
    -0.663360,
    0.805076,
    -0.453367,
    -0.653423,
    0.516205,
    0.596327,
    -0.456545,
    -0.215944,
    0.297104,
    0.053566,
    0.913623,
    1.068345,
    0.614577,
    1.089893,
    0.196591,
    0.500358,
    -0.949264,
    2.569361,
    0.459980,
    1.092271,
    -0.902102,
    0.123862,
    -0.847360,
    1.499706,
    1.549961,
    0.883887,
    -0.176450,
    0.065388,
    0.241379,
    0.966918,
    0.864383,
    -0.220991,
    -1.423356,
    1.165105,
    1.723571,
    3.240076,
    0.653184,
    1.653212,
    0.547794,
    0.088970,
    1.906703,
    -0.934939,
    -0.069751,
    -1.558528,
    0.540415,
    0.612885,
    0.788912,
    -2.584892,
    1.346025,
    1.412348,
    0.713526,
    0.745353,
    2.869423,
    -0.422481,
    -0.670043,
    1.365978,
    0.798914,
    -1.116576,
    0.349122,
    -0.774486,
    2.062871,
    0.530732,
    0.440843,
    2.448695,
    0.153845,
    1.742596,
    0.895640,
    1.335289,
    1.641058,
    -0.010363,
    -0.698496,
    -1.441810,
    -0.648936,
    0.375044,
    -0.280772,
    -0.990226,
    0.459543,
    0.527471,
    0.956470,
    3.187718,
    1.986714,
    2.049420,
    0.935679,
    -0.559564,
    -0.770303,
    0.373052,
    -0.126421,
    0.523451,
    1.277617,
    -3.923422,
    -0.053960,
    1.086367,
    1.080785,
    1.720138,
    0.505330,
    -1.025046,
    -0.883546,
    -0.560742,
    -1.491761,
    -1.950020,
    -0.549166,
    -0.244328,
    -1.060108,
    -0.381181,
    1.330699,
    0.276618,
    2.071284,
    1.199057,
    0.734890,
    2.683409,
    2.797748,
    0.054581,
    0.458056,
    0.966289,
    -0.929785,
    1.435469,
    -0.453832,
    -2.388096,
    1.289154,
    -0.525423,
    -0.937851,
    -0.219028,
    0.072078,
    -0.012664,
    1.309603,
    0.421127,
    0.598850,
    -2.057698,
    0.494576,
    -2.206098,
    -1.040899,
    0.384036,
    0.165901,
    2.080061,
    -0.125452,
    -1.271069,
    0.559715,
    -0.887875,
    -0.658011,
    -0.016070,
    1.178091,
    -0.175340,
    -1.128759,
    0.440971,
    -1.312589,
    -0.378067,
    -0.116551,
    -0.875659,
    1.100654,
    -0.228560,
    -1.121913,
    1.481142,
    0.714037,
    0.531729,
    0.416471,
    -0.623788,
    -2.210498,
    -0.623939,
    -0.691504,
    0.713403,
    -0.834004,
    1.172086,
    2.003887,
    0.289347,
    0.812414,
    -0.725588,
    0.426864,
    -1.323639,
    -0.606678,
    0.061865,
    0.049030,
    0.142018,
    1.085697,
    -1.749016,
    0.538609,
    -0.948558,
    1.265624,
    -0.010745,
    1.008585,
    -0.089059,
    0.532582,
    1.152620,
    0.826029,
    -0.538603,
    0.259085,
    1.010952,
    0.294860,
    0.942505,
    0.186831,
    -0.197553,
    -1.318846,
    1.625183,
    -0.380112,
    2.036526,
    0.414331,
    -0.279816,
    1.122293,
    -0.735319,
    -0.330682,
    -0.078719,
    0.399198,
    -1.327741,
    0.632297,
    -1.032632,
    -0.186717,
    -0.591418,
    0.129379,
    0.331142,
    4.003461,
    2.124637,
    2.614126,
    1.559286,
    -0.115416,
    -0.774323,
    -0.710418,
    -0.500984,
    -0.077161,
    -0.771195,
    1.356126,
    -1.719841,
    -1.547432,
    1.249503,
    1.364592,
    1.404608,
    -1.956603,
    -0.255305,
    0.167300,
    0.501796,
    -0.645616,
    1.073826,
    -0.464214,
    -0.739741,
    0.054727,
    0.472679,
    1.901965,
    -0.336912,
    -0.816650,
    4.433754,
    1.151133,
    1.863284,
    1.527843,
    2.959072,
    -0.395300,
    1.674025,
    0.403666,
    -0.380559,
    -0.144573,
    -0.958768,
    -0.882234,
    -0.416530,
    -0.420291,
    -1.048098,
    1.977030,
    0.500955,
    -0.414514,
    0.453791,
    0.553854,
    0.186447,
    0.502501,
    -0.401940,
    -2.299652,
    -0.094385,
    -0.988263,
    1.553053,
    -1.037721,
    1.861172,
    0.385108,
    1.223916,
    1.864994,
    1.780600,
    1.441626,
    1.244190,
    0.763005,
    -1.156422,
    -0.139933,
    -1.567756,
    -0.985734,
    0.179838,
    1.230341,
    -2.087041,
    -0.279729,
    0.301363,
    1.917149,
    1.358932,
    2.046871,
    0.976647,
    0.566060,
    -0.176849,
    0.912167,
    1.594201,
    0.036384,
    0.067741,
    -1.730482,
    -1.782695,
    0.659053,
    0.536531,
    -1.006742,
    1.251274,
    0.682557,
    -2.235100,
    -0.833090,
    -0.974784,
    -1.496960,
    -3.225037,
    0.109003,
    0.188288,
    1.910879,
    1.825397,
    -1.055567,
    -2.421407,
    -0.338521,
    3.088234,
    1.258399,
    -0.074799,
    -0.416997,
    -0.431227,
    0.143717,
    -0.940524,
    1.393954,
    -1.881927,
    -0.193817,
    -0.379652,
    -1.399548,
    -1.648333,
    0.691618,
    -1.518296,
    -2.644124,
    -0.957475,
    0.373244,
    -0.364653,
    -2.080410,
    0.431925,
    -1.783247,
    -0.903190,
    -0.148045,
    -0.760666,
    -0.112896,
    -0.662793,
    -0.212354,
    -0.372378,
    0.457032,
    0.121201,
    0.189032,
    -1.102961,
    0.890267,
    -0.165032,
    1.257136,
    1.202480,
    0.232460,
    -0.174350,
    0.665781,
    -0.247478,
    0.132964,
    -1.583626,
    -1.277293,
    -0.597948,
    0.523168,
    -0.693648,
    0.231784,
    0.934921,
    0.667939,
    2.205844,
    -1.140801,
    -0.286094,
    -0.909013,
    2.594166,
    -0.122397,
    -0.503384,
    1.847935,
    -1.725830,
    0.809102,
    -1.243125,
    -1.424821,
    1.879464,
    -1.558916,
    -0.963666,
    -1.167717,
    -0.386306,
    1.628164,
    -0.719890,
    0.673999,
    -2.151439,
    -1.111124,
    -0.147324,
    0.519009,
    -0.184414,
    -1.442520,
    -1.170995,
    0.148569,
    0.191876,
    0.006780,
    0.311926,
    -1.229552,
    2.403056,
    0.432242,
    -0.735012,
    -0.050076,
    -0.500346,
    1.684107,
    -0.208533,
    -0.639644,
    0.782312,
    -2.731276,
    0.908847,
    -0.645137,
    -0.946762,
    -0.144010,
    -0.642844,
    0.262544,
    -1.476600,
    0.288829,
    -0.579849,
    -1.245598,
    0.049313,
    -0.800541,
    -1.295548,
    0.103101,
    0.706419,
    0.034824,
    1.166530,
    -0.212286,
    1.751999,
    0.324827,
    -1.087157,
    0.291121,
    -0.400950,
    0.294471,
    -0.592489,
    -0.611860,
    -1.256076,
    0.111418,
    -0.271733,
    -1.651978,
    0.851843,
    0.424013,
    0.523788,
    1.846120,
    0.832926,
    0.252016,
    -0.672379,
    0.093682,
    -0.301113,
    0.173257,
    -0.377814,
    0.556945,
    -0.239358,
    -0.019910,
    0.137105,
    0.496974,
    -0.588970,
    -0.761176,
    -0.953985,
    0.384932,
    -0.939675,
    0.090180,
    0.783055,
    0.755077,
    0.611734,
    0.496003,
    1.815897,
    -0.349097,
    0.487984,
    1.169503,
    -0.054520,
    -0.769600,
    0.664314,
    0.143554,
    0.900223,
    0.956582,
    0.187866,
    0.795732,
    0.870698,
    -1.155722,
    0.493373,
    -1.920396,
    0.931171,
    0.370344,
    1.015411,
    0.788276,
    -0.527293,
    0.039733,
    -0.252659,
    1.421726,
    0.955621,
    -0.266397,
    0.632919,
    -0.964505,
    0.521997,
    0.905691,
    -1.521235,
    -0.277504,
    -0.083498,
    -0.729347,
    -1.110878,
    -0.764197,
    0.185579,
    -0.323987,
    -0.124040,
    0.355836,
    1.314410,
    1.375262,
    0.319269,
    0.723629,
    1.326096,
    -0.575258,
    0.548375,
    0.912853,
    1.455535,
    -0.955082,
    -1.590092,
    -0.301621,
    -0.430198,
    1.895386,
    -0.422221,
    0.121678,
    -1.126724,
    1.294218,
    -1.202727,
    -0.848015,
    -0.809648,
    -2.126548,
    -0.216164,
    1.063886,
    1.630458,
    1.035958,
    -0.331416,
    -0.288739,
    0.595315,
    0.241780,
    1.201616,
    -0.358017,
    -0.435113,
    0.900163,
    0.437300,
    0.065135,
    0.387432,
    1.368499,
    -0.563448,
    -1.774044,
    -1.524591,
    0.609676,
    0.645757,
    0.125283,
    -1.051827,
    -1.536230,
    -2.669812,
    0.207444,
    -0.014146,
    -0.077364,
    -1.645352,
    -1.194287,
    -0.747090,
    -0.103968,
    0.607528,
    -0.503290,
    1.156446,
    0.091616,
    -0.255135,
    0.509968,
    0.483302,
    -1.832093,
    -0.358104,
    -0.448496,
    -0.278106,
    -0.661774,
    -0.580545,
    0.528751,
    0.585514,
    0.112038,
    -0.759426,
    -1.208461,
    -0.950063,
    0.450872,
    0.939352,
    -0.564282,
    0.449029,
    -1.128707,
    -1.421465,
    -1.245346,
    -3.101160,
    1.553990,
    0.800285,
    0.217625,
    0.558945,
    0.769613,
    -0.904247,
    0.688978,
    -0.410252,
    0.562327,
    0.854408,
    0.385937,
    -0.468069,
    0.201388,
    -0.527042,
    -0.093300,
    0.219068,
    0.530006,
    0.693646,
    0.727326,
    -0.180733,
    -0.562846,
    -1.795127,
    1.179525,
    0.272180,
    -2.860250,
    -3.310996,
    -1.096357,
    -1.481911,
    1.345564,
    0.892909,
    1.561876,
    1.227274,
    2.201048,
    0.822357,
    -0.974197,
    -2.191668,
    -0.361472,
    0.614648,
    1.241789,
    0.415692,
    1.068549,
    0.515680,
    0.708168,
    -1.474355,
    0.675382,
    -0.170741,
    1.797756,
    -0.439224,
    0.462967,
    1.198419,
    -2.145670,
    -1.503172,
    -2.213009,
    -2.853715,
    -1.427042,
    0.508530,
    2.000896,
    1.627578,
    2.148360,
    2.891649,
    2.190963,
    0.050127,
    -0.940194,
    -0.266811,
    -1.072745,
    -0.917751,
    0.273889,
    1.305551,
    -0.483627,
    -0.455343,
    1.787565,
    1.024298,
    1.367394,
    -0.628703,
    -0.617872,
    -0.716302,
    0.452566,
    1.311006,
    -1.181792,
    -1.495024,
    -2.598382,
    0.067070,
    0.242491,
    1.140681,
    1.307161,
    -1.160577,
    2.754199,
    0.419975,
    0.638841,
    0.948397,
    0.443658,
    0.113450,
    0.153195,
    0.652528,
    0.797851,
    -0.383462,
    0.151279,
    -1.215617,
    -0.034183,
    0.085247,
    -0.473581,
    -0.816880,
    0.027043,
    -0.256470,
    0.511602,
    -0.048800,
    -2.400391,
    -2.035851,
    -1.445384,
    -0.138668,
    1.561453,
    1.301679,
    1.569978,
    2.206480,
    0.999469,
    -0.011112,
    1.055872,
    0.663968,
    0.496565,
    -0.010872,
    -0.827582,
    0.986296,
    0.041427,
    -0.594654,
    2.079111,
    -0.481894,
    -1.015728,
    1.276703,
    -1.346568,
    -0.515837,
    -0.613476,
    0.070819,
    1.030456,
    1.169072,
    -1.390269,
    -1.603430,
    -2.793354,
    0.521393,
    0.081850,
    0.960887,
    -0.733140,
    1.864061,
    -1.427854,
    -0.062588,
    -1.473530,
    -0.569249,
    0.495238,
    -0.449846,
    0.070867,
    -0.001653,
    1.705100,
    0.104366,
    1.880533,
    0.667327,
    -1.231978,
    -1.690934,
    1.113290,
    0.781909,
    0.663608,
    0.112622,
    -0.139769,
    0.816136,
    -3.285254,
    -1.301821,
    -3.122699,
    -0.966170,
    -1.413819,
    1.071594,
    -0.195528,
    -0.570433,
    -1.447132,
    0.910306,
    -0.987576,
    -1.263423,
    -0.595591,
    -0.272335,
    1.060847,
    1.233082,
    -1.032445,
    1.058448,
    -0.747436,
    -0.658226,
    -0.018990,
    -0.505346,
    1.027630,
    0.469184,
    0.300834,
    -0.266794,
    -1.852105,
    -1.664975,
    -1.361480,
    -1.862976,
    -1.215411,
    0.666724,
    -0.050847,
    1.618890,
    -0.321869,
    -0.588796,
    -0.404476,
    -1.880600,
    -1.262413,
    0.748654,
    -1.353977,
    -0.926153,
    0.058069,
    0.323879,
    -2.221348,
    0.728085,
    -0.196170,
    -1.210033,
    -1.936404,
    0.376861,
    -0.323430,
    0.151523,
    0.789872,
    0.836957,
    0.013131,
    -1.638256,
    -0.188798,
    -0.826580,
    0.123828,
    0.749833,
    -0.118414,
    -1.238322,
    -0.677126,
    0.901176,
    -0.645587,
    0.406151,
    -0.367084,
    -0.289280,
    1.361196,
    -0.354005,
    -0.137627,
    0.431181,
    1.133755,
    -1.041676,
    1.158494,
    0.427675,
    1.334138,
    -0.396308,
    0.022230,
    0.272347,
    1.044944,
    1.604295,
    0.812192,
    -0.656429,
    1.531419,
    -0.230288,
    -1.232095,
    -1.336316,
    0.619062,
    -1.431633,
    -0.235240,
    -1.907179,
    -1.416313,
    -1.088546,
    0.791969,
    -2.041595,
    -1.484510,
    -0.671630,
    -0.895446,
    0.076627,
    -1.571019,
    0.846683,
    -0.568227,
    -1.215840,
    0.048607,
    0.204128,
    0.893915,
    0.391343,
    1.431027,
    2.349967,
    -1.702280,
    -0.247827,
    -1.544939,
    -0.150420,
    0.440694,
    -1.528245,
    -0.575503,
    -0.433073,
    -0.842357,
    0.102451,
    1.608897,
    1.956874,
    -0.873479,
    -0.219938,
    0.068232,
    -0.234965,
    -1.074370,
    -1.074915,
    1.093118,
    0.355600,
    2.912196,
    0.331047,
    0.755352,
    1.611975,
    0.773319,
    2.493990,
    1.650751,
    0.808512,
    -0.232007,
    0.252113,
    0.450730,
    -2.635136,
    -2.056806,
    1.252454,
    -0.507026,
    -0.158151,
    1.134009,
    0.542809,
    1.347113,
    -0.168245,
    -1.020844,
    0.654671,
    -0.955222,
    -1.166619,
    -0.952612,
    0.309593,
    0.614571,
    0.311115,
    -0.730480,
    1.057543,
    0.177468,
    -0.366062,
    0.044097,
    -0.134326,
    -0.477401,
    0.386204,
    -0.294055,
    -0.039181,
    -0.072685,
    0.148274,
    -0.491657,
    0.266068,
    -1.045198,
    -0.235500,
    -0.353525,
    0.159786,
    -1.494275,
    1.480821,
    -0.658602,
    0.009644,
    0.846367,
    -1.001137,
    0.762645,
    0.452316,
    0.360698,
    -0.305300,
    -2.336647,
    -0.897256,
    0.160992,
    0.633161,
    0.706734,
    1.492532,
    2.470098,
    -1.075664,
    1.200940,
    0.845659,
    -1.196240,
    1.160674,
    0.465523,
    1.179815,
    0.655506,
    -0.226706,
    0.334777,
    -1.153553,
    -0.122422,
    0.195486,
    -2.042375,
    -0.280187,
    -0.975059,
    0.393616,
    -0.274548,
    -1.801931,
    -0.935514,
    0.926118,
    -1.629838,
    -0.197083,
    -0.837738,
    -1.238783,
    -1.181120,
    -0.509909,
    0.654163,
    -0.840656,
    -0.574280,
    0.903630,
    -0.174197,
    -2.634274,
    -1.437076,
    -0.182244,
    -2.067313,
    1.033431,
    -0.318115,
    1.382859,
    0.483102,
    -0.632441,
    -0.353787,
    -0.755001,
    -0.901532,
    -1.038644,
    0.216366,
    -2.838895,
    -1.148389,
    0.893508,
    0.057530,
    -2.192208,
    -1.860613,
    -2.143629,
    1.092039,
    -0.926723,
    0.146050,
    -0.425694,
    -0.696868,
    0.942100,
    1.345121,
    -1.717752,
    1.202789,
    -1.369246,
    0.659378,
    -1.382049,
    -0.226925,
    0.936052,
    1.157136,
    -0.691550,
    -0.324952,
    -0.526297,
    -1.296082,
    -1.823879,
    0.193385,
    0.309437,
    -0.187285,
    0.804865,
    -0.550610,
    0.344697,
    -0.365859,
    0.620025,
    -0.488217,
    -1.333614,
    1.232674,
    0.401231,
    0.621478,
    -0.595070,
    0.157323,
    -1.565920,
    0.176617,
    0.136103,
    -0.987825,
    0.069496,
    0.888767,
    -0.811347,
    -1.039657,
    -0.647673,
    0.239718,
    0.525587,
    -1.341403,
    0.436287,
    -1.288476,
    0.907171,
    0.398455,
    -1.381830,
    -0.308981,
    -0.960562,
    -0.010628,
    -1.346881,
    0.833091,
    0.340606,
    -1.970847,
    -0.686602,
    -3.180423,
    -1.093064,
    -1.270289,
    0.050178,
    -0.670265,
    -0.749980,
    -1.089929,
    -2.136147,
    -0.117207,
    0.561256,
    1.284648,
    1.307136,
    1.081037,
    -0.814069,
    -0.515850,
    0.466855,
    0.110317,
    1.568100,
    0.733375,
    0.722178,
    1.474389,
    -1.272823,
    1.406896,
    1.037708,
    -0.223659,
    -0.369504,
    -1.399303,
    0.007597,
    0.408365,
    0.602485,
    -0.079932,
    -0.788382,
    -0.238202,
    -1.743446,
    -0.267113,
    -0.455610,
    1.468093,
    -0.990799,
    0.273895,
    -0.053005,
    -0.817128,
    -0.533299,
    -0.234447,
    0.125253,
    -0.030152,
    1.349799,
    -0.448427,
    -0.728971,
    1.276198,
    -1.117007,
    -0.506012,
    0.349358,
    -0.145306,
    1.459550,
    -0.696698,
    0.810985,
    1.412421,
    -0.236398,
    -1.246557,
    0.354843,
    -1.469780,
    0.277001,
    1.263192,
    1.410158,
    1.117708,
    0.575445,
    1.124633,
    1.554364,
    -1.042069,
    -0.187169,
    0.208537,
    0.733668,
    0.566152,
    -0.405201,
    -0.231600,
    -0.147482,
    -0.531173,
    0.816037,
    -0.097148,
    -1.029180,
    0.320991,
    -0.798508,
    1.112047,
    -0.393135,
    -0.350478,
    -0.289576,
    -0.406357,
    1.150012,
    0.592270,
    -0.356939,
    1.462461,
    0.691129,
    0.204688,
    -1.077595,
    -1.192156,
    0.304055,
    -0.376148,
    1.195726,
    -1.058327,
    0.759659,
    0.522583,
    0.592603,
    0.264701,
    -0.548561,
    -0.422534,
    -0.356500,
    -1.096390,
    -0.345609,
    0.045706,
    0.293158,
    -1.320976,
    -0.808255,
    -0.886388,
    0.672763,
    1.080168,
    0.836448,
    -0.057432,
    0.905555,
    0.631877,
    1.213795,
    -0.943662,
    -2.342132,
    -0.698273,
    0.373035,
    -1.020102,
    0.408729,
    -0.126413,
    -0.249873,
    0.170901,
    -0.267888,
    0.819812,
    -1.325741,
    1.296280,
    0.324105,
    -1.535889,
    -1.462040,
    1.029790,
    -0.840886,
    0.005306,
    -0.175486,
    1.812360,
    0.843090,
    -0.919502,
    -0.906586,
    -1.100941,
    0.710793,
    -0.032558,
    1.091313,
    -0.355280,
    -0.243455,
    -0.191506,
    0.664961,
    -0.195574,
    -0.347412,
    0.117109,
    -0.798234,
    -0.142512,
    0.435923,
    0.170075,
    0.223310,
    -0.965671,
    0.213699,
    0.953233,
    -0.726535,
    -1.799319,
    -0.887370,
    0.055232,
    -0.904925,
    -0.473419,
    1.518696,
    0.383262,
    1.070089,
    -0.249922,
    -0.078406,
    -0.583837,
    -1.405419,
    -0.351376,
    -0.595284,
    1.065617,
    0.177633,
    1.120883,
    1.460911,
    -2.293443,
    -0.782517,
    0.471767,
    -0.205403,
    -0.094644,
    0.269946,
    1.096385,
    -1.095694,
    -0.032133,
    0.360003,
    1.745822,
    1.062010,
    -0.139404,
    -0.066628,
    -0.533415,
    0.285672,
    0.951383,
    -1.510522,
    1.526400,
    -1.107578,
    -0.602835,
    -0.901230,
    0.444443,
    0.088003,
    1.520193,
    -1.342843,
    0.564217,
    -1.263140,
    1.684455,
    -0.651743,
    0.975434,
    -0.642620,
    1.091322,
    -0.066760,
    0.097582,
    0.407192,
    0.287224,
    0.821274,
    0.701524,
    1.067769,
    0.455384,
    -0.039614,
    0.258358,
    -1.780234,
    -2.426213,
    0.880841,
    1.648264,
    2.196173,
    0.352179,
    0.591893,
    -0.146433,
    -0.240485,
    1.222831,
    0.981506,
    -1.279688,
    -0.078408,
    1.351411,
    -0.095234,
    -1.429451,
    -1.798508,
    0.223754,
    0.554725,
    -1.316180,
    -1.061190,
    0.274199,
    -0.348845,
    0.471109,
    0.275402,
    -1.648533,
    -0.483820,
    0.724263,
    -1.099238,
    -1.555506,
    -0.661389,
    1.407133,
    0.307388,
    0.331009,
    0.568409,
    -0.387562,
    -0.042566,
    1.744028,
    -0.339887,
    -0.601674,
    1.695185,
    1.029882,
    0.840289,
    0.360510,
    -0.843225,
    0.727821,
    0.140961,
    -0.423539,
    -1.071377,
    0.439496,
    -0.173546,
    0.035864,
    -1.293330,
    0.418371,
    -0.707436,
    1.259994,
    2.409763,
    0.977957,
    1.572569,
    2.658647,
    1.299921,
    1.355832,
    -0.148748,
    -0.042930,
    -0.931402,
    -1.445165,
    -1.354653,
    -1.465345,
    -1.860494,
    1.189179,
    -0.347019,
    -0.208512,
    0.490024,
    1.208139,
    -0.405738,
    -1.502226,
    0.564868,
    0.277490,
    1.170952,
    -0.775031,
    0.613679,
    -0.389562,
    1.229639,
    -0.719817,
    1.440408,
    1.129607,
    0.778837,
    0.842702,
    1.545504,
    0.412122,
    0.288500,
    0.449911,
    -0.393674,
    -1.396293,
    -0.648256,
    -0.643089,
    0.861215,
    1.450387,
    0.419611,
    -0.022187,
    -0.029774,
    -1.846652,
    -0.719692,
    0.267099,
    -0.883436,
    1.722244,
    -0.108179,
    0.937425,
    0.730923,
    0.812568,
    1.180823,
    -0.841250,
    0.501710,
    -0.023191,
    -0.322622,
    -0.595911,
    0.039059,
    -0.755669,
    1.508461,
    -0.681897,
    0.004531,
    0.160830,
    -0.677087,
    -0.442694,
    -0.332945,
    -0.145435,
    0.738695,
    -0.560042,
    -1.018869,
    0.383928,
    0.581599,
    0.532663,
    -1.414854,
    0.086582,
    0.558476,
    0.850615,
    -0.127713,
    0.278600,
    0.985538,
    -0.139279,
    -0.461375,
    0.906559,
    0.010481,
    -0.066260,
    1.957928,
    -1.109599,
    1.026054,
    0.160250,
    1.459573,
    -1.531679,
    0.291921,
    -2.464808,
    0.435813,
    -0.123930,
    -0.768505,
    0.204777,
    -0.092471,
    -0.036916,
    0.831048,
    -0.493548,
    -0.317067,
    -0.146386,
    -0.456589,
    0.044739,
    1.101865,
    1.980198,
    0.573418,
    1.016348,
    0.445259,
    1.237693,
    1.443841,
    -0.169562,
    0.800703,
    -0.714202,
    1.140879,
    0.639422,
    0.777964,
    0.719747,
    0.209168,
    0.484089,
    -0.602990,
    -2.115315,
    0.587562,
    -0.026409,
    -0.895772,
    0.668376,
    0.576442,
    2.199598,
    -1.006359,
    -1.136777,
    -1.375054,
    -1.283199,
    0.667798,
    -1.195218,
    0.182214,
    0.691346,
    1.288972,
    -0.738440,
    1.826882,
    0.873840,
    0.749600,
    0.256494,
    1.202435,
    0.751861,
    0.946126,
    0.419160,
    1.361869,
    -2.021767,
    -2.267477,
    -1.399570,
    0.865640,
    -0.062438,
    1.023337,
    -1.843812,
    0.179222,
    -0.548129,
    -1.275222,
    -0.352124,
    0.036733,
    0.772632,
    -0.757271,
    1.838983,
    2.187299,
    -0.400762,
    0.245849,
    -2.580905,
    -1.478509,
    1.396423,
    1.120156,
    1.019752,
    0.213760,
    -0.406969,
    -1.010903,
    -0.854838,
    0.850985,
    -1.019971,
    -0.592602,
    -0.378054,
    -1.528254,
    -0.855479,
    -0.463978,
    0.960333,
    0.415372,
    0.011476,
    0.324474,
    -0.533779,
    -0.083039,
    0.184580,
    0.028272,
    -2.434682,
    -4.611314,
    -4.759084,
    -4.579164,
    -6.671476,
    -6.157647,
    -0.941341,
    0.844502,
    1.026534,
    1.022260,
    0.365122,
    1.721008,
    0.826004,
    -1.001216,
    -0.637438,
    -0.923824,
    -0.074862,
    0.658647,
    2.422916,
    -0.130221,
    0.041899,
    1.061287,
    0.929341,
    -1.425794,
    -1.863973,
    -2.580003,
    -5.029171,
    -4.916498,
    -8.362093,
    -5.760067,
    -4.448136,
    -2.530977,
    -2.253891,
    -3.171452,
    1.296412,
    0.709360,
    0.924802,
    0.486439,
    1.325429,
    -0.138856,
    -0.433802,
    -2.414711,
    0.520479,
    -0.715332,
    -0.454321,
    0.515868,
    0.849156,
    0.243117,
    -0.002101,
    -2.352771,
    -1.251676,
    -0.452784,
    -3.343055,
    -4.424313,
    -6.240439,
    -4.539579,
    -3.869681,
    -1.213267,
    -1.388096,
    -1.040448,
    -1.275085,
    0.063749,
    0.175097,
    -0.344606,
    0.005945,
    0.433426,
    0.673203,
    -0.043207,
    -1.582433,
    -1.191241,
    -1.686759,
    -1.647689,
    -1.027427,
    -0.730795,
    0.657537,
    -0.521968,
    -0.598285,
    -1.356176,
    1.053666,
    -1.112685,
    -4.880746,
    -4.604276,
    -3.373255,
    -2.417543,
    -0.321969,
    -0.745466,
    -0.528910,
    0.495558,
    0.067403,
    -0.064935,
    -1.218954,
    0.441344,
    -1.811513,
    -0.944471,
    0.236535,
    0.658580,
    0.949543,
    -0.727601,
    0.861060,
    -1.777551,
    1.086066,
    0.151576,
    -0.457814,
    -0.944060,
    -0.957143,
    -0.144548,
    0.842516,
    -0.626293,
    0.407275,
    -0.531120,
    2.072691,
    1.626374,
    0.342174,
    1.094882,
    -0.466320,
    0.087990,
    0.387421,
    -0.280432,
    1.392240,
    -0.067907,
    0.241910,
    0.735150,
    0.321612,
    -0.941768,
    1.114781,
    0.719976,
    -0.371196,
    0.707674,
    0.986585,
    0.061907,
    -0.193174,
    0.526354,
    0.154054,
    -0.871142,
    -0.590585,
    -1.133774,
    -0.080946,
    0.538814,
    0.043044,
    -0.319902,
    0.611266,
    -0.774111,
    -0.942272,
    0.358455,
    -0.801274,
    0.976353,
    0.163757,
    1.202012,
    -0.215423,
    0.392481,
    -0.020517,
    1.753958,
    0.165988,
    -2.467197,
    -1.367080,
    0.078179,
    2.104752,
    0.338029,
    0.024761,
    -0.729778,
    -2.033559,
    -0.684432,
    0.999306,
    0.963497,
    1.935078,
    -0.216729,
    -2.625181,
    -1.519400,
    -0.199942,
    -1.803949,
    0.378333,
    0.144941,
    0.630537,
    -0.259788,
    0.445868,
    -0.858732,
    1.199051,
    0.407672,
    1.013949,
    -1.389863,
    0.247884,
    -1.143408,
    0.705978,
    -0.471674,
    1.444921,
    -0.476896,
    -2.401116,
    0.009515,
    0.475596,
    0.709521,
    2.272669,
    2.319729,
    1.695696,
    1.741292,
    0.217377,
    -0.985110,
    0.595833,
    -1.183632,
    -0.507972,
    0.245935,
    -0.058233,
    -0.004162,
    -0.710231,
    -1.174798,
    0.549712,
    -1.360258,
    -0.709615,
    -1.936045,
    -0.198707,
    -1.487152,
    -1.000199,
    0.141245,
    1.461916,
    0.418932,
    0.210603,
    -3.340421,
    -1.469713,
    0.361706,
    1.183164,
    1.308962,
    1.057403,
    0.821623,
    1.496470,
    0.135520,
    -0.025776,
    -2.950067,
    -0.485702,
    -0.583865,
    0.246373,
    1.265644,
    0.827020,
    0.970723,
    1.296232,
    1.594181,
    0.597293,
    -0.104614,
    0.240788,
    1.384576,
    -0.045306,
    3.352764,
    0.509778,
    -0.974578,
    -0.297768,
    -0.969381,
    1.459312,
    0.189839,
    0.529338,
    -0.042814,
    -0.138944,
    1.248526,
    -0.917546,
    -0.645857,
    -1.019568,
    -0.419018,
    -0.832942,
    0.073986,
    -0.152050,
    -1.224047,
    1.485886,
    0.338830,
    1.594554,
    0.592175,
    1.242890,
    3.153004,
    1.180414,
    0.805175,
    1.444269,
    0.272746,
    0.345006,
    1.167046,
    0.841960,
    0.391356,
    0.155925,
    1.342317,
    1.334789,
    2.594172,
    0.959459,
    -0.260046,
    -0.379966,
    0.359466,
    1.254839,
    1.009248,
    0.941272,
    0.329146,
    -0.238850,
    -0.247421,
    -0.054320,
    2.079214,
    -0.666960,
    0.621491,
    0.822996,
    -0.231097,
    0.490197,
    1.208817,
    0.324533,
    2.411796,
    2.395263,
    1.222879,
    -0.163685,
    -0.163055,
    0.662693,
    -0.924820,
    3.306395,
    0.841516,
    0.231256,
    1.242535,
    0.292865,
    -0.348759,
    0.689528,
    0.613058,
    -0.199444,
    -1.114413,
    0.838810,
    -0.150755,
    -0.452292,
    0.027512,
    0.279904,
    -1.829772,
    0.591807,
    2.093795,
    -0.484535,
    0.163180,
    1.616403,
    0.629949,
    -0.266119,
    0.751652,
    0.043155,
    0.907115,
    1.144956,
    -2.002113,
    0.028577,
    2.234296,
    2.195840,
    -0.077766,
    1.206161,
    0.905712,
    0.649994,
    -1.418226,
    0.411752,
    -0.872204,
    -1.085384,
    -0.407816,
    -1.071650,
    0.013796,
    1.775173,
    0.598542,
    0.644893,
    -0.458874,
    2.579259,
    0.834767,
    0.694261,
    1.130827,
    -0.867836,
    3.143570,
    1.084440,
    1.914690,
    1.614565,
    -0.550450,
    0.224889,
    0.990986,
    1.743724,
    0.987072,
    2.159735,
    -0.979113,
    -1.777089,
    -0.394953,
    -0.927638,
    -1.516500,
    -0.012852,
    0.887901,
    -2.710882,
    -0.226008,
    0.553834,
    0.686039,
    0.353407,
    0.454325,
    1.398602,
    1.560386,
    -0.025203,
    0.451518,
    1.074270,
    0.411095,
    2.826450,
    -0.051842,
    -0.605995,
    0.562486,
    -0.675375,
    1.368982,
    -0.369873,
    -1.123864,
    1.268151,
    0.996819,
    -0.176217,
    0.478381,
    0.157419,
    0.383359,
    -0.022164,
    -0.259150,
    -0.731683,
    -0.392563,
    0.398771,
    -1.140080,
    -0.774327,
    -1.828861,
    2.255386,
    0.458946,
    2.011880,
    0.771519,
    -0.968214,
    0.363918,
    -0.996718,
    0.237213,
    1.198028,
    1.621770,
    0.587570,
    0.170934,
    -0.328556,
    1.813073,
    -1.610282,
    1.018742,
    1.443193,
    0.619498,
    -0.302715,
    0.420571,
    0.829135,
    -1.655297,
    0.763558,
    -1.578226,
    -0.367831,
    -2.963841,
    -2.102095,
    1.073080,
    -1.037427,
    0.958387,
    -0.585796,
    0.382747,
    1.115518,
    0.013177,
    -0.192040,
    0.297570,
    1.184631,
    0.044831,
    0.728253,
    -0.400310,
    0.051441,
    -1.166412,
    1.514924,
    -0.814837,
    0.117340,
    -0.136911,
    1.880268,
    -1.605580,
    0.484378,
    0.628349,
    -1.053583,
    -0.974201,
    -1.493800,
    -0.737450,
    0.167524,
    0.910129,
    -0.583812,
    0.047857,
    -0.110777,
    -0.900305,
    1.299132,
    -0.218353,
    -0.048505,
    -1.243715,
    -0.687535,
    -0.808992,
    0.239110,
    -3.297171,
    1.189942,
    0.595757,
    -1.351568,
    -0.589505,
    -0.369840,
    -1.430111,
    1.039492,
    0.136013,
    -0.448160,
    -0.132328,
    2.088953,
    -0.672088,
    0.342050,
    0.205547,
    -0.776431,
    -0.225595,
    -0.491385,
    -1.583800,
    -0.677173,
    -0.439432,
    -0.213822,
    -0.445386,
    -1.878744,
    -1.056492,
    0.573976,
    0.916851,
    0.397125,
    -1.501494,
    0.890830,
    0.230099,
    1.405805,
    -0.761965,
    -1.193564,
    -0.176299,
    0.054861,
    -1.135200,
    -1.220397,
    0.389969,
    -0.185847,
    -0.839240,
    0.768940,
    0.205871,
    0.030122,
    -0.904893,
    -0.646774,
    0.248924,
    -0.690683,
    0.960798,
    0.608441,
    1.118086,
    1.042958,
    -0.933977,
    -0.161318,
    0.632413,
    -0.075038,
    -0.255422,
    -0.637752,
    -0.114808,
    0.290174,
    0.393181,
    0.818938,
    -2.127954,
    -0.135742,
    1.136512,
    0.175793,
    0.372858,
    1.281987,
    -1.094517,
    0.265234,
    1.086857,
    1.642462,
    0.142993,
    -0.483110,
    2.721108,
    0.659252,
    -0.154738,
    2.687674,
    -2.328824,
    -0.672639,
    -1.046012,
    -0.561596,
    0.319665,
    -0.752191,
    1.278088,
    -0.406848,
    1.299970,
    -0.737228,
    -0.622323,
    1.374491,
    0.370956,
    0.782396,
    -1.186398,
    0.457768,
    1.414528,
    0.134168,
    0.372143,
    2.381872,
    0.028266,
    -0.083436,
    -0.223704,
    -0.460308,
    -1.713734,
    -0.977657,
    -1.726896,
    0.094780,
    -1.765709,
    0.546608,
    -1.905591,
    1.686081,
    1.946279,
    -1.626097,
    0.283071,
    0.000422,
    0.317833,
    0.800857,
    0.098336,
    -2.167246,
    1.094285,
    0.657681,
    1.231500,
    -0.280512,
    1.240294,
    0.986870,
    -0.241733,
    1.401902,
    -0.236106,
    -1.437189,
    -0.583314,
    -0.473620,
    0.059328,
    -1.402507,
    -1.029298,
    -0.518516,
    -1.905444,
    1.387591,
    0.459940,
    -0.103161,
    0.337434,
    0.847884,
    0.213671,
    -1.264205,
    0.247132,
    0.521410,
    1.014139,
    -0.399344,
    0.435347,
    -0.384197,
    -0.843738,
    -2.337234,
    -2.440247,
    1.963238,
    -0.748105,
    -0.330419,
    0.011968,
    0.793506,
    0.426536,
    0.652175,
    1.175550,
    -0.757438,
    0.122916,
    0.536391,
    0.013354,
    -0.579985,
    -2.287099,
    1.579752,
    -0.372387,
    0.230556,
    2.016218,
    1.371661,
    -0.025315,
    -1.112805,
    -0.080294,
    1.081092,
    -1.820945,
    -1.652904,
    -3.039410,
    -2.582901,
    -1.269361,
    -4.154205,
    -2.432293,
    -1.183059,
    -2.690368,
    -1.459589,
    -0.900391,
    -0.868156,
    -1.550080,
    -1.696174,
    0.768188,
    -0.668820,
    0.484139,
    -0.557987,
    -0.467281,
    1.194767,
    1.529577,
    -2.716922,
    0.576570,
    -0.508741,
    1.225302,
    -0.120791,
    0.339250,
    -1.615212,
    0.980130,
    -1.091060,
    0.596624,
    -0.856272,
    -1.707802,
    0.052459,
    0.171099,
    -0.430201,
    -0.810455,
    -0.791720,
    0.511376,
    -0.719737,
    -0.769867,
    1.127948,
    1.715479,
    0.086124,
    0.287694,
    -0.510079,
    0.399434,
    0.804875,
    -0.571075,
    0.200516,
    -1.132225,
    -0.578053,
    0.586021,
    -0.971999,
    1.693998,
    -0.352640,
    1.965739,
    1.292376,
    1.492790,
    0.990862,
    -0.363181,
    1.077629,
    0.242095,
    2.473321,
    2.185038,
    0.510435,
    1.361125,
    -0.466692,
    1.796448,
    -0.193937,
    -0.710324,
    1.373891,
    1.174841,
    1.391360,
    1.029320,
    0.788517,
    0.256703,
    0.075842,
    3.380615,
    -0.341531,
    0.909078,
    2.754047,
    2.268488,
    2.280637,
    1.062506,
    1.791026,
    1.028814,
    -0.141178,
    0.977479,
    -0.789465,
    0.577080,
    1.071343,
    0.898450,
    -0.115726,
    0.111609,
    1.288083,
    1.085837,
    0.679252,
    0.409095,
    0.802824,
    0.238719,
    -0.679081,
    0.374919,
    -0.288071,
    0.492963,
    0.511273,
    1.391141,
    0.664635,
    1.537417,
    1.180884,
    1.776497,
    1.530696,
    2.845959,
    0.870344,
    2.047646,
    -0.924966,
    1.261547,
    1.353898,
    -0.077927,
    0.322206,
    0.411295,
    -0.190332,
    1.330590,
    0.332276,
    1.750326,
    0.367756,
    -0.847746,
    -0.324206,
    -0.485584,
    2.010808,
    -0.593454,
    0.175455,
    -0.515929,
    -0.427432,
    1.062752,
    2.640685,
    -0.528097,
    0.628153,
    -0.873578,
    -0.833105,
    -0.798750,
    2.371186,
    -0.168478,
    3.465000,
    1.944200,
    0.754850,
    2.310331,
    0.980930,
    1.725626,
    1.448221,
    2.012361,
    1.182348,
    0.784284,
    0.348278,
    -1.756805,
    -1.729375,
    0.363021,
    1.497866,
    1.276618,
    1.439233,
    -0.521998,
    1.000673,
    1.046017,
    -1.009578,
    -3.038987,
    -0.846055,
    -0.434201,
    0.199480,
    0.095077,
    0.530768,
    -0.747267,
    3.234350,
    1.386642,
    2.605714,
    0.097385,
    -0.014968,
    0.742006,
    1.316354,
    0.285403,
    0.945436,
    0.030355,
    -1.427424,
    -1.184349,
    2.839266,
    0.699354,
    0.355006,
    1.995949,
    1.700868,
    0.281619,
    -0.392079,
    -0.316423,
    -0.832686,
    0.917946,
    0.458843,
    -0.575889,
    -1.510569,
    -0.439959,
    0.719295,
    -2.704296,
    -2.890110,
    -3.267168,
    0.098159,
    -0.499478,
    0.187037,
    -0.507244,
    -2.240105,
    0.203076,
    -1.119075,
    -2.150205,
    -0.824766,
    -0.275266,
    0.956816,
    -0.908755,
    -2.369346,
    0.143040,
    1.269340,
    0.317675,
    1.378307,
    0.445046,
    0.588180,
    -1.777143,
    -0.606610,
    -0.676498,
    -0.536612,
    -1.702492,
    -0.570737,
    -2.811639,
    -7.783583,
    -2.968633,
    -1.427435,
    -0.559840,
    1.127991,
    -1.312728,
    -2.220432,
    -2.659666,
    -3.421423,
    0.276383,
    -1.698053,
    -2.340199,
    0.782404,
    -0.018285,
    -0.086177,
    -1.365078,
    -0.700009,
    0.595584,
    -0.682098,
    -1.272667,
    -0.476264,
    -0.549373,
    -0.721436,
    -1.171280,
    -1.272292,
    0.232284,
    -1.411928,
    -3.080777,
    -3.069792,
    -0.785923,
    0.213652,
    0.208925,
    0.166859,
    0.124063,
    0.160437,
    3.496966,
    0.140993,
    0.810346,
    1.257680,
    1.774476,
    0.098185,
    0.934805,
    0.125190,
    -0.098855,
    0.754722,
    -0.056882,
    1.201198,
    1.282101,
    0.078048,
    -0.655121,
    1.159271,
    -0.803513,
    0.615115,
    0.259348,
    -1.975978,
    -3.959945,
    -0.924262,
    -1.643533,
    0.241990,
    -0.935560,
    1.094992,
    -0.399951,
    0.315856,
    1.312704,
    1.849350,
    1.485603,
    0.879663,
    -0.127191,
    0.709466,
    0.844844,
    0.470757,
    -1.080734,
    -0.482504,
    2.034539,
    -0.940395,
    1.537349,
    -1.463209,
    1.068917,
    -0.177580,
    -0.301017,
    -0.587842,
    -1.562769,
    -3.202973,
    -1.325600,
    -2.025521,
    -0.697990,
    0.870880,
    -0.488838,
    0.555762,
    -0.622268,
    0.460136,
    -0.942632,
    -0.203835,
    -0.029055,
    -0.714521,
    0.182531,
    -0.274171,
    -0.317801,
    0.717446,
    -0.535443,
    0.744590,
    0.628270,
    1.104936,
    -0.633908,
    -0.901683,
    -1.684765,
    -0.479063,
    -1.197937,
    -0.235563,
    -1.867463,
    -1.768261,
    -1.735102,
    -0.712230,
    0.130946,
    -0.422601,
    -0.277438,
    1.540408,
    2.029331,
    1.222015,
    1.013319,
    0.693272,
    -1.303298,
    -0.044491,
    -0.772255,
    -1.562726,
    -0.180474,
    -1.136229,
    -2.001579,
    0.556000,
    1.658034,
    0.218396,
    0.987726,
    -0.695777,
    -1.609371,
    -2.126061,
    -0.048399,
    -1.337567,
    -0.607424,
    -1.790907,
    -1.358687,
    0.210776,
    -0.348887,
    -0.135003,
    -1.945177,
    0.473433,
    0.896278,
    -0.584836,
    -0.877869,
    -1.683773,
    -1.171426,
    -2.147466,
    -1.003497,
    0.038676,
    0.279556,
    -0.498250,
    -0.263743,
    -0.188812,
    0.014338,
    0.918400,
    0.523287,
    -1.478706,
    -1.730569,
    -0.502538,
    -0.322566,
    -1.362837,
    -0.898739,
    -1.663067,
    -1.165626,
    0.367196,
    0.427132,
    -0.131658,
    -0.533567,
    -1.360682,
    -1.154424,
    -1.372009,
    -0.422997,
    -2.220636,
    -2.970617,
    -2.119119,
    -0.676076,
    2.399553,
    -2.219569,
    0.158118,
    0.375538,
    -0.467227,
    2.239089,
    0.171834,
    -0.640733,
    -1.769050,
    -0.309224,
    -1.851528,
    -0.378267,
    -0.005126,
    -0.984575,
    -2.169927,
    -1.272076,
    0.374241,
    0.645240,
    -1.499670,
    -1.513347,
    -2.099050,
    -3.651413,
    0.134994,
    -2.245225,
    -0.743026,
    -2.171984,
    -1.103891,
    -0.071815,
    -1.879895,
    -0.075780,
    0.748445,
    -1.001602,
    -0.431652,
    1.089472,
    -0.258906,
    0.595919,
    -1.395815,
    -1.985487,
    -1.279414,
    -0.979077,
    -1.042263,
    -0.405334,
    -2.100007,
    -1.187405,
    -0.270387,
    -0.594056,
    0.198499,
    -1.291152,
    -1.558338,
    -1.678936,
    -1.886731,
    -4.230552,
    -1.083552,
    -2.356622,
    -2.268567,
    -0.675142,
    -0.192785,
    0.087058,
    1.352665,
    -1.240407,
    -0.503589,
    -0.204385,
    -1.676705,
    -0.471182,
    -0.017571,
    0.458631,
    -0.980057,
    1.066138,
    -2.625415,
    0.813840,
    -2.277760,
    0.174147,
    -0.348843,
    -1.082833,
    -0.202284,
    0.350699,
    -0.206283,
    0.175645,
    -0.588040,
    -2.984476,
    -2.625286,
    -1.634861,
    -0.263889,
    -1.992866,
    1.940239,
    -0.765582,
    -0.972878,
    -1.262055,
    -0.383053,
    0.132509,
    0.731070,
    0.959932,
    1.342992,
    2.467366,
    2.563756,
    0.394255,
    -0.472581,
    -0.770590,
    -1.927966,
    -0.701931,
    -0.476911,
    -0.681112,
    1.067341,
    -0.948030,
    -0.206174,
    -1.893237,
    -2.046539,
    -2.716062,
    -1.017241,
    -0.433100,
    0.088429,
    -0.169595,
    0.513972,
    0.505951,
    0.660422,
    -0.555703,
    1.182872,
    -1.457256,
    0.293997,
    1.703492,
    3.008786,
    0.239397,
    2.584298,
    1.921743,
    0.713800,
    0.614560,
    -1.274147,
    -0.489323,
    1.222788,
    0.097115,
    1.182272,
    0.315078,
    1.273194,
    -0.724989,
    -0.897273,
    0.133689,
    -1.533825,
    -0.821288,
    -1.878237,
    -1.725857,
    1.140529,
    0.398119,
    -0.556267,
    0.493870,
    1.222436,
    0.121923,
    -0.150331,
    1.645899,
    2.139533,
    0.441218,
    1.027233,
    -1.122051,
    2.138846,
    1.650817,
    0.590155,
    0.991280,
    0.153259,
    0.125509,
    0.871414,
    -0.670816,
    -0.183422,
    0.359921,
    -0.301697,
    0.801881,
    1.957898,
    0.537326,
    -0.635406,
    0.289850,
    -0.847027,
    -0.648000,
    -0.039085,
    0.168361,
    1.137426,
    0.433355,
    -1.290703,
    -0.913339,
    -0.418201,
    -0.539083,
    -0.284902,
    -0.758131,
    -0.514147,
    -0.448820,
    -1.495218,
    -0.830360,
    -1.940549,
    -0.187296,
    -0.290235,
    -1.387466,
    -0.111484,
    0.049357,
    1.801668,
    -0.220633,
    2.076881,
    2.691807,
    0.162136,
    0.346475,
    0.892421,
    0.384577,
    -0.610496,
    0.281466,
    0.465015,
    -0.859554,
    0.949801,
    -0.171942,
    -1.903980,
    -0.162662,
    -0.469053,
    -0.834229,
    1.267584,
    -1.513910,
    -1.383122,
    -0.330770,
    -0.709345,
    1.098727,
    -0.229099,
    0.245373,
    0.106471,
    -0.149348,
    1.046614,
    -1.527998,
    -1.122219,
    0.076544,
    0.028309,
    1.394535,
    -0.829509,
    1.666078,
    -1.810840,
    -0.243605,
    -0.338958,
    0.573038,
    0.574105,
    -1.037711,
    -1.758473,
    -0.812448,
    0.928254,
    -0.060513,
    1.190991,
    -0.000839,
    -1.083401,
    -1.189424,
    1.018329,
    0.273563,
    1.535543,
    -0.579330,
    -1.376797,
    1.379609,
    -1.396800,
    -1.674703,
    1.413130,
    2.840634,
    -0.851758,
    -0.230888,
    -1.051244,
    0.418567,
    -0.058786,
    -0.049064,
    0.131399,
    1.735949,
    -0.041553,
    0.518647,
    0.829450,
    0.114121,
    1.205682,
    0.100618,
    0.891295,
    -0.741686,
    0.058268,
    -0.776921,
    1.297220,
    0.573830,
    0.311362,
    2.254426,
    -0.641222,
    1.562661,
    1.109655,
    1.939070,
    -0.520909,
    -0.416007,
    -1.027694,
    0.123412,
    0.972944,
    0.230493,
    -0.552502,
    -0.509248,
    1.764022,
    -0.279478,
    0.679984,
    -0.316568,
    -0.774665,
    -0.983462,
    0.039991,
    -0.901767,
    1.132937,
    0.166601,
    -0.570525,
    -0.825574,
    0.674280,
    -1.433704,
    0.110087,
    2.544382,
    -1.282295,
    -1.195502,
    2.294188,
    -0.826868,
    -0.397607,
    -0.204787,
    -0.547318,
    0.884565,
    -0.377782,
    0.973756,
    0.257226,
    1.416891,
    1.089048,
    0.908228,
    -0.504176,
    -1.491033,
    0.177246,
    -1.426356,
    -0.388580,
    0.590705,
    0.794192,
    -1.972939,
    -1.345151,
    0.155899,
    0.817282,
    -0.469635,
    -0.255097,
    1.270831,
    2.240034,
    -0.526223,
    0.885259,
    1.222424,
    -0.075311,
    0.272101,
    -0.482900,
    -0.463458,
    -0.132627,
    0.279617,
    0.253535,
    0.823260,
    0.348240,
    -0.443830,
    -0.566961,
    -1.270653,
    -0.103159,
    1.095190,
    1.069684,
    -0.260145,
    -1.315083,
    0.703957,
    -1.335517,
    -0.060193,
    1.275725,
    1.201629,
    -0.812062,
    0.598129,
    -0.886974,
    1.095279,
    0.499420,
    -1.254402,
    1.356814,
    0.678564,
    -1.110870,
    0.905257,
    -0.754437,
    1.739284,
    0.653227,
    0.913166,
    0.042776,
    -1.398240,
    1.411203,
    -0.617235,
    0.025650,
    1.315582,
    0.421032,
    -0.178351,
    -0.845020,
    0.913416,
    1.075833,
    -0.650905,
    -0.032844,
    0.310025,
    0.775033,
    1.120834,
    -1.071925,
    -1.702973,
    -0.892283,
    1.933059,
    -1.775467,
    0.850526,
    0.559337,
    0.742235,
    0.241973,
    -1.307836,
    0.977642,
    -1.008708,
    -0.324740,
    -0.794156,
    1.487188,
    0.475427,
    -1.158291,
    -0.576312,
    -0.141016,
    -0.413057,
    -0.166806,
    0.228721,
    0.199688,
    -0.394635,
    1.964756,
    0.112168,
    -0.408871,
    -0.419754,
    0.342067,
    -0.842514,
    -0.230384,
    0.355673,
    1.367162,
    0.758403,
    1.746544,
    -0.577900,
    0.289915,
    -0.840624,
    0.281708,
    -1.142337,
    -0.591589,
    0.872901,
    0.060218,
    -0.421534,
    -0.916217,
    -1.586097,
    0.298900,
    -0.243073,
    -0.108348,
    -0.877566,
    1.099403,
    0.443296,
    0.335956,
    0.807668,
    0.340488,
    -0.429097,
    0.120723,
    0.773501,
    -0.160743,
    2.079150,
    0.173743,
    0.286399,
    0.776695,
    1.061242,
    -0.353373,
    -1.564548,
    -2.225288,
    0.532038,
    -0.252829,
    -0.930019,
    -0.279396,
    -0.893940,
    -1.048105,
    2.363179,
    -1.075890,
    -0.787147,
    0.402009,
    0.087327,
    -0.975156,
    1.473304,
    1.424389,
    0.177575,
    1.780356,
    -1.113700,
    0.919427,
    -0.422074,
    -0.348127,
    0.123722,
    -0.576285,
    -0.119619,
    0.818717,
    2.143472,
    2.435561,
    2.805742,
    -0.025571,
    0.200752,
    -0.842380,
    -0.597050,
    0.442280,
    0.387906,
    -0.930501,
    0.311749,
    -0.541022,
    0.217835,
    -1.858503,
    -0.394886,
    1.135998,
    -0.550287,
    0.114901,
    0.883335,
    -0.280275,
    0.353040,
    -2.575314,
    -0.372033,
    -1.421158,
    0.228022,
    0.556402,
    0.084813,
    1.370683,
    0.890859,
    0.832040,
    1.591020,
    0.905560,
    -0.113819,
    0.731085,
    0.159060,
    0.347306,
    0.083486,
    -1.089997,
    1.389976,
    1.470584,
    -0.527627,
    0.775189,
    -1.117027,
    -1.557600,
    0.860144,
    1.124700,
    -0.160127,
    -0.940650,
    -1.799151,
    -1.803318,
    -0.443531,
    -1.522262,
    -0.370944,
    -2.521342,
    -0.966983,
    -2.014125,
    -0.685528,
    1.305712,
    0.058978,
    0.545412,
    -0.322242,
    -1.212127,
    -3.203317,
    -0.263507,
    0.237989,
    -1.182748,
    -1.852932,
    -1.965076,
    -0.130335,
    -0.897144,
    0.382934,
    0.077369,
    2.009408,
    0.981980,
    0.478727,
    0.323530,
    2.738074,
    -0.425565,
    0.448510,
    -0.831655,
    -1.066800,
    1.020495,
    -2.530463,
    -2.729519,
    -0.324129,
    -0.697455,
    -2.027801,
    -0.935971,
    0.304298,
    1.083172,
    -0.556552,
    -1.883482,
    -0.387406,
    0.763749,
    0.845112,
    -2.598186,
    0.960334,
    0.298177,
    1.108305,
    0.025923,
    0.483675,
    0.916904,
    1.689873,
    -0.404837,
    0.348816,
    0.591646,
    -0.530217,
    -0.342202,
    0.160913,
    -1.166738,
    0.399405,
    -1.594029,
    -3.691618,
    -1.211724,
    -0.040905,
    -0.739457,
    -0.303620,
    -1.470731,
    -0.854682,
    2.083784,
    0.888233,
    0.682185,
    0.031869,
    -1.323363,
    0.817023,
    -1.177660,
    -0.110337,
    0.807588,
    0.820308,
    0.364553,
    -0.634769,
    -0.338085,
    0.083296,
    1.839796,
    -0.871789,
    0.359569,
    0.542406,
    0.119891,
    -0.198453,
    -1.545082,
    -0.484965,
    0.958744,
    0.263457,
    -0.352918,
    -0.057172,
    0.534181,
    -0.283190,
    0.635011,
    -0.517442,
    -1.488763,
    1.214302,
    -1.053240,
    0.270440,
    0.857663,
    1.292061,
    -2.107162,
    1.255571,
    -0.497537,
    1.221587,
    1.590418,
    -0.307417,
    -0.501448,
    0.080116,
    -2.147120,
    -0.296445,
    -0.667025,
    -1.335544,
    0.112482,
    0.707810,
    0.023616,
    0.843078,
    -1.147057,
    2.256496,
    0.983890,
    0.240848,
    -0.855534,
    -3.922487,
    -1.638729,
    -0.183012,
    0.230181,
    -1.549665,
    0.632293,
    -0.599779,
    -0.592221,
    1.211428,
    -0.052175,
    1.206003,
    -0.694440,
    -1.230955,
    -0.211454,
    -0.583527,
    0.346384,
    -1.547348,
    0.898924,
    -0.582525,
    1.540452,
    0.223156,
    1.052623,
    1.308578,
    -0.879067,
    1.679808,
    0.445798,
    0.137521,
    -0.013475,
    -0.516485,
    -1.547051,
    -3.503031,
    -2.162438,
    -3.836354,
    -0.487478,
    -0.693252,
    1.301886,
    2.699781,
    1.756028,
    1.699386,
    -1.383433,
    0.376743,
    -1.824769,
    0.802646,
    -1.118409,
    -0.786162,
    -0.415654,
    0.160227,
    0.944023,
    3.134747,
    -0.547700,
    0.099323,
    0.111865,
    -0.479138,
    -0.037485,
    -0.366516,
    1.653965,
    -0.361491,
    -1.616407,
    -1.864620,
    -2.677990,
    -4.186172,
    -4.381875,
    -3.847774,
    -2.212768,
    -3.552063,
    -0.226227,
    -2.544895,
    -1.174967,
    -1.690793,
    -0.953420,
    0.283587,
    0.836928,
    0.695359,
    0.592370,
    -0.272410,
    0.697227,
    3.049286,
    -1.084422,
    -1.119250,
    -0.047063,
    0.118188,
    -2.228438,
    1.262254,
    0.441879,
    -0.601569,
    -0.899813,
    -2.057211,
    -1.960688,
    -4.001029,
    -5.558237,
    -7.241169,
    -7.959044,
    -6.856039,
    -4.984057,
    -2.034222,
    0.192890,
    -1.286939,
    -0.479372,
    -0.917679,
    0.592358,
    0.593938,
    0.691969,
    1.985363,
    0.131287,
    0.923095,
    0.278130,
    -0.381036,
    -2.036813,
    -0.471135,
    1.280801,
    -0.250414,
    0.629443,
    0.086296,
    0.060335,
    1.193192,
    -0.454233,
    0.991961,
    -1.088741,
    -1.371377,
    -2.250208,
    -3.120185,
    -1.542881,
    0.346614,
    0.450823,
    0.964914,
    0.356378,
    -0.506964,
    -0.337843,
    0.758858,
    0.718654,
    -0.026340,
    -0.539045,
    -0.127818,
    -0.549172,
    0.354307,
    1.070503,
    -0.708628,
    0.036224,
    -0.350487,
    0.147416,
    1.381410,
    0.971511,
    -0.289679,
    0.427206,
    1.050622,
    1.102656,
    1.513689,
    0.383618,
    1.160907,
    0.281531,
    -0.871185,
    -1.040681,
    1.206546,
    0.551107,
    0.799523,
    1.782118,
    0.647445,
    -0.343972,
    1.505782,
    0.671031,
    -0.566653,
    0.595284,
    1.070163,
    0.458531,
    0.984584,
    1.185276,
    0.352736,
    -0.310596,
    0.908803,
    0.921948,
    1.547737,
    0.556875,
    1.137663,
    0.429507,
    -0.372686,
    0.092110,
    -0.198413,
    -0.157446,
    0.381211,
    1.194577,
    0.071887,
    -0.412828,
    0.064492,
    0.463037,
    0.631174,
    -0.889667,
    -0.094444,
    0.471224,
    0.584923,
    -0.547287,
    1.488990,
    -0.275220,
    0.312761,
    0.125317,
    0.212602,
    0.146073,
    -1.855386,
    0.637029,
    -1.030348,
    -0.326504,
    0.245885,
    0.120076,
    1.610526,
    1.672066,
    0.750717,
    0.756477,
    -1.071727,
    0.636104,
    -1.516052,
    0.802546,
    0.257477,
    1.462276,
    -0.395419,
    0.480384,
    0.241517,
    1.626413,
    -0.576069,
    -0.113134,
    0.447285,
    1.400171,
    1.211209,
    -0.115226,
    0.953981,
    0.608402,
    0.277175,
    0.933943,
    2.186589,
    -1.266805,
    0.253462,
    -1.486404,
    1.509401,
    -1.131962,
    0.517200,
    -0.911047,
    1.293783,
    -0.777986,
    2.204186,
    0.825803,
    0.214142,
    -0.885598,
    -0.690637,
    0.263185,
    0.719651,
    -0.678091,
    0.903615,
    -0.045779,
    1.195450,
    0.681720,
    0.785806,
    -1.308161,
    -0.653833,
    -0.025352,
    1.414216,
    0.273448,
    0.300259,
    0.080868,
    1.119465,
    2.407423,
    0.259831,
    1.669284,
    0.494697,
    0.366548,
    1.568656,
    0.349823,
    -1.360879,
    -0.044012,
    0.739814,
    0.014730,
    -2.413799,
    -0.218891,
    0.138523,
    -0.351862,
    0.768320,
    0.400040,
    0.870058,
    0.596577,
    -1.386422,
    2.023962,
    0.076533,
    0.481847,
    -0.774403,
    -1.002476,
    1.233101,
    -1.594940,
    -0.674489,
    1.765254,
    1.191583,
    1.184812,
    0.545017,
    -0.079226,
    0.055961,
    -0.111034,
    -0.082990,
    0.748911,
    -1.155134,
    -0.040002,
    -0.633730,
    0.204034,
    0.806724,
    -2.258234,
    -1.746285,
    -0.290826,
    -0.866779,
    -1.081039,
    -0.408146,
    0.867499,
    1.353041,
    1.596611,
    0.522133,
    0.380952,
    0.213439,
    0.582250,
    -0.883729,
    0.367482,
    -0.980353,
    -0.628797,
    1.052602,
    -1.985716,
    -1.527426,
    -0.320121,
    -1.037912,
    0.645103,
    -1.074595,
    -0.677900,
    -1.482639,
    -0.230893,
    1.861553,
    -0.602894,
    3.223190,
    0.274592,
    -1.695485,
    0.438660,
    -0.022296,
    -0.444630,
    0.959831,
    -0.013620,
    -0.544841,
    -0.212090,
    0.438456,
    -0.537798,
    -0.753571,
    2.362831,
    0.766706,
    -0.110737,
    0.883011,
    -0.573512,
    1.119323,
    -0.493710,
    -0.473410,
    -1.848978,
    0.649711,
    -1.116549,
    0.793323,
    0.111920,
    -0.029066,
    0.651826,
    -0.133379,
    -0.440986,
    -1.271059,
    0.135272,
    -0.314288,
    0.636105,
    0.589369,
    -0.628613,
    -1.005958,
    -1.430840,
    -0.567622,
    -0.680870,
    0.229112,
    -1.486900,
    0.443668,
    -1.348293,
    -0.380250,
    -3.388028,
    -0.072880,
    -0.542050,
    0.296773,
    -1.305152,
    0.200959,
    -1.329319,
    0.872718,
    -1.522636,
    1.570784,
    0.001163,
    2.145397,
    0.098376,
    -1.547173,
    0.154644,
    -0.182530,
    0.502687,
    0.397866,
    0.320170,
    1.045919,
    -0.245115,
    0.385675,
    -1.014494,
    -0.559772,
    -1.271008,
    -1.040189,
    0.022121,
    0.382344,
    -0.192484,
    0.738686,
    1.474523,
    -0.140035,
    -0.600658,
    0.150497,
    -0.311704,
    -0.206920,
    -0.870902,
    -1.380293,
    0.034697,
    -0.708919,
    1.182871,
    -0.128690,
    1.251594,
    -2.022707,
    -0.165373,
    -0.577475,
    -1.353703,
    0.217363,
    -1.251708,
    -0.684710,
    0.127752,
    1.205220,
    -0.590643,
    1.714695,
    -1.009507,
    0.631969,
    1.094684,
    -2.200471,
    1.326044,
    -0.374931,
    1.644737,
    0.583678,
    -0.409677,
    1.591609,
    -1.376893,
    -0.206765,
    1.293027,
    0.547692,
    -0.509756,
    -0.330661,
    1.157565,
    -0.996951,
    0.905715,
    -1.028244,
    1.393714,
    -0.562767,
    -0.995494,
    1.367248,
    0.936317,
    3.009597,
    1.004150,
    2.273285,
    0.213414,
    0.347782,
    -0.729678,
    -0.919787,
    0.392912,
    1.611235,
    0.273101,
    0.085331,
    1.344649,
    0.215726,
    1.562401,
    -0.340463,
    -0.545512,
    0.312058,
    0.183723,
    1.285110,
    -0.140559,
    -0.988950,
    0.045941,
    2.579218,
    0.052286,
    -0.959794,
    0.162070,
    -0.182122,
    0.635632,
    -0.256944,
    -1.392314,
    1.350663,
    -0.949492,
    -1.113537,
    -0.080992,
    1.564169,
    0.369644,
    -0.700590,
    0.634081,
    -0.561189,
    1.261705,
    1.632294,
    -0.127345,
    1.865457,
    -1.413780,
    0.955671,
    -1.613419,
    1.712148,
    -1.229771,
    0.906566,
    -0.656122,
    0.057893,
    -1.438256,
    1.621616,
    -1.001818,
    1.707245,
    -0.735634,
    -1.310727,
    -1.765481,
    -0.205724,
    -1.139906,
    -1.092346,
    1.144528,
    -1.170796,
    1.169598,
    -0.256230,
    0.726664,
    0.568065,
    0.633527,
    0.672602,
    0.272871,
    -0.592599,
    0.685733,
    -1.627971,
    -0.369984,
    0.285532,
    -0.468487,
    1.078067,
    -0.002677,
    1.060404,
    2.190078,
    -0.427872,
    0.516211,
    -0.783569,
    -0.597826,
    -0.543321,
    -0.600493,
    -2.842964,
    -1.390295,
    -0.410023,
    -0.468771,
    -0.960906,
    1.047913,
    0.731441,
    0.078087,
    0.149935,
    0.656613,
    0.253560,
    1.016074,
    -0.490535,
    0.236937,
    0.810681,
    -0.946076,
    -1.239434,
    -0.915501,
    -0.533625,
    0.206786,
    0.733423,
    -0.767600,
    0.951902,
    -1.293908,
    0.340707,
    -0.344353,
    1.014683,
    -0.166644,
    -0.579644,
    0.335198,
    -0.788088,
    -1.050961,
    -1.589650,
    -0.670951,
    0.233708,
    -1.180802,
    -0.769268,
    -1.539953,
    -0.488334,
    2.012032,
    1.380788,
    0.294835,
    -0.162278,
    -1.057225,
    -0.094057,
    0.495556,
    -0.650736,
    0.208855,
    0.037287,
    -0.987693,
    -1.262335,
    -0.700000,
    -0.120553,
    1.037242,
    -0.853073,
    -0.388857,
    -1.195047,
    -0.039086,
    -1.193693,
    -0.933398,
    -1.509680,
    -0.774868,
    0.534064,
    -0.337284,
    -0.087442,
    1.524052,
    1.042807,
    0.711914,
    -0.035862,
    0.707829,
    -3.155434,
    1.159603,
    0.559761,
    0.086549,
    -1.761371,
    -0.069381,
    1.535664,
    0.724559,
    -1.373614,
    0.042060,
    -0.807112,
    -2.279416,
    -0.628339,
    1.107859,
    1.801449,
    0.143614,
    0.924712,
    -0.031658,
    -1.433844,
    -1.243409,
    -0.906337,
    0.790164,
    2.070441,
    1.487332,
    1.271149,
    1.161549,
    1.172441,
    0.556741,
    -2.170933,
    -2.050871,
    -1.113940,
    -0.558542,
    -2.006954,
    -1.822813,
    0.316053,
    1.288286,
    -0.936263,
    0.811511,
    -0.645311,
    0.175669,
    0.184639,
    0.836256,
    -1.260910,
    0.269450,
    -1.141341,
    0.281806,
    -0.012097,
    -1.567257,
    -1.482337,
    -1.106503,
    0.113885,
    0.260068,
    0.323499,
    1.161259,
    -0.902993,
    -0.298869,
    -1.144562,
    -2.394124,
    0.991550,
    1.237587,
    -0.190123,
    -1.596604,
    1.177413,
    -0.121654,
    -3.038784,
    1.152255,
    0.987300,
    0.428175,
    -0.160647,
    -1.330232,
    -0.230833,
    -0.820756,
    -0.417800,
    -1.403012,
    -1.152504,
    -1.632572,
    -1.255335,
    -0.061573,
    -0.614351,
    -0.795805,
    0.367296,
    1.757591,
    1.566757,
    0.877512,
    -1.042055,
    0.127838,
    -0.659771,
    0.312260,
    1.250399,
    -1.415343,
    -0.867952,
    1.787022,
    0.319297,
    1.599954,
    -0.691385,
    1.034149,
    -0.168461,
    0.123645,
    -1.534752,
    -1.735223,
    0.293695,
    0.718992,
    0.316538,
    -1.762919,
    -0.051615,
    2.668791,
    1.312258,
    1.937806,
    2.488204,
    2.929038,
    4.430831,
    3.390888,
    0.915193,
    0.052080,
    0.945824,
    1.259673,
    -1.260539,
    -0.804311,
    -0.319595,
    1.983073,
    -0.393173,
    -0.746461,
    1.847804,
    -0.521164,
    -0.658813,
    -0.587480,
    -0.186428,
    0.612911,
    -0.321167,
    -0.621411,
    -1.340119,
    0.865675,
    -0.371954,
    -0.232670,
    -0.449123,
    -0.418176,
    0.445748,
    0.336158,
    1.342720,
    0.483252,
    0.426474,
    0.183004,
    1.425133,
    -0.745103,
    0.742431,
    0.038807,
    2.131559,
    -0.365159,
    -1.481883,
    0.199910,
    0.612113,
    1.417211,
    -0.389024,
    0.941469,
    1.317497,
    0.047120,
    1.049154,
    0.348495,
    0.407192,
    -0.378116,
    -0.998781,
    0.050329,
    0.292494,
    -0.462707,
    -1.069909,
    -0.392222,
    0.790694,
    -0.117383,
    1.427227,
    1.954180,
    0.709003,
    -0.047407,
    -0.788088,
    0.362890,
    -2.061444,
    -0.788723,
    -1.421989,
    0.485069,
    1.635717,
    2.523562,
    1.342753,
    1.009380,
    -0.045576,
    0.570170,
    0.178021,
    0.310638,
    0.575394,
    0.386587,
    -1.321386,
    -0.501410,
    0.590386,
    -0.026555,
    1.302447,
    -0.285669,
    1.666325,
    0.016366,
    0.198626,
    -0.982743,
    -1.137067,
    1.624472,
    -0.324735,
    0.673852,
    0.456571,
    0.445343,
    0.651818,
    0.593647,
    0.733505,
    1.671185,
    1.472951,
    2.772298,
    1.840261,
    0.081227,
    -0.597156,
    -0.393858,
    -0.426340,
    -0.108797,
    -1.352087,
    0.991438,
    -0.679902,
    -0.427348,
    -0.412284,
    -0.846027,
    0.405447,
    -0.119823,
    2.187918,
    0.401966,
    0.706569,
    0.162092,
    0.839954,
    0.562983,
    -1.158522,
    0.960387,
    -0.159878,
    -1.211947,
    0.117966,
    0.521575,
    1.349626,
    0.456541,
    2.755234,
    0.108865,
    0.267633,
    -1.183937,
    0.063671,
    0.985960,
    0.371465,
    -0.161191,
    -1.423079,
    0.731402,
    -0.622197,
    0.629116,
    1.881901,
    -2.722492,
    0.501552,
    0.010628,
    0.636411,
    0.280274,
    -0.751700,
    -1.027027,
    -0.638145,
    1.506231,
    -0.579027,
    -1.282479,
    -1.444250,
    -0.540140,
    1.212546,
    0.229952,
    3.091491,
    0.442454,
    -1.849190,
    -3.021122,
    0.760297,
    -2.389926,
    -0.413854,
    0.146704,
    -0.607395,
    0.409411,
    0.990187,
    0.879948,
    0.255685,
    1.881209,
    -0.526903,
    0.506749,
    -0.411848,
    -0.822886,
    1.107623,
    0.061896,
    -1.735218,
    -1.287389,
    -0.368253,
    0.484935,
    -0.760615,
    -0.804251,
    -0.342537,
    2.108974,
    2.337217,
    1.368159,
    -2.209616,
    -1.392936,
    -3.025406,
    0.538183,
    -2.597071,
    0.569177,
    -1.382803,
    -0.776207,
    0.727598,
    0.319546,
    0.403903,
    0.381243,
    1.746522,
    0.632407,
    0.316802,
    -0.000617,
    0.128321,
    1.206917,
    1.907773,
    1.522919,
    -0.313770,
    -0.552578,
    -0.204889,
    0.893864,
    1.322700,
    -0.868987,
    2.556514,
    1.156930,
    -0.541079,
    0.265646,
    0.550018,
    0.767595,
    -2.093851,
    -1.665015,
    -0.103630,
    -1.719740,
    -1.068963,
    2.147479,
    -1.062720,
    0.967704,
    -0.193467,
    -0.009663,
    0.186102,
    1.037546,
